0.006327005 -0.0033418643 0.0026773573 0.004612445 0.18041879 0.08780364 0.03870505 0.14329392 -0.58413357 -0.023735385 0.0062834723 0.03410915 -0.15227515 0.038090784 -0.017441064 -0.07355853 0.02175833 0.6489039 -0.1118947 0.068338 0.41236916 -0.12805896 0.049531896 0.4113259 -0.119668074 0.014133949 0.16341388 -0.011652667 -0.13250194 0.16101861 0.012968369 0.15461192 0.13712719 -0.05301861 0.12139084 0.25700685 0.02342702 -0.13737133 0.28087193 -0.01526287 0.041679095 0.1272723 0.24834666 -0.09118986 0.029502507 -0.060364187 0.0009128834 0.12596357 -0.09099346 0.19283222 -0.037458424 0.015765188 0.15786895 0.2579908 -0.040230975 0.25154707 0.09439446 0.12840664 0.064807 0.046187967 0.047149174 0.06728445 0.13011068 0.0405313 -0.005884227 0.08109658 0.014350047 -0.096956536 -0.06697768 0.019468931 0.17421359 0.070815966 0.071385674 0.1284646 0.16333492 0.10309933 0.18522169 0.029325409 0.095966876 0.11067558 -0.0018531538 -0.030512433 -0.048974343 -0.091176435 0.146039 -0.07343164 -0.020236788 0.15875201 0.07863669 0.045497406 0.10946165 0.007946962 0.09096538 0.24857806 0.24893294 -0.0024773125 0.068399556 0.07779203 -0.20780382 0.21047817 -0.054062825 0.01667299 0.20143722 0.03624972 0.008858625 0.40243548 -0.1514648 0.089927725 0.22945008 0.04991666 -0.017326364 0.2030252 0.37843528 0.01138456 -0.026439339 -0.073732644 -0.13787802 0.0076193614 -0.005753013 0.07571571 -0.0117825065 0.10227614 -0.13084032 -0.18321383 0.07606681 0.15436144 0.07492973 -0.090644166 -0.013991522 -0.19027965 -0.2097136 0.18865557 0.10802879 0.08230966 0.11282788 -0.2552129 0.054912332 -0.014183273 -0.034259055 0.0809127 0.11007152 -0.17143743 0.08425972 0.07872528 -0.16581818 -0.020518834 0.019977786 -0.053169716 -0.15286303 -0.07585621 -0.14292674 0.12052579 -0.034682088 -0.06791931 0.12017515 -0.10159947 -0.22181296 0.0790587 -0.065107346 -0.08088853 -0.07783081 -0.0016160518 0.09140694 0.026715312 0.09487428 -0.13192119 0.015616355 0.23159277 0.036012735 0.12497628 -0.012181395 -0.12974562 0.020075494 0.056814842 0.17082664 0.12043108 -0.12464151 0.22898363 0.1471705 0.15318114 -0.14013274 -0.10047804 0.053099733 -0.14817029 0.023829728 0.0505109 -0.24003042 0.16939715 -0.018742975 -0.0034696136 0.09431283 -0.016405636 -0.14293262 0.16323213 -0.05963764 -0.022869237 0.1740114 -0.16485116 -0.18604325 0.13163662 -0.0768043 -0.029612705 0.13244261 -0.0057747858 0.14495587 0.058408275 -0.0725792 0.041923206 0.21467593 -0.15930805 -0.051921386 -0.2664427 -0.2544934 -0.21030399 -0.18925312 -0.32126677 0.005243635 -0.109002374 0.10448727 -0.009444798 0.013503595 -0.052677922 0.381842 0.35544425 -0.06330717 0.2982886 0.33148247 0.04448819 0.2291355 0.15066463 0.04361077 0.18973432 0.05166153 -0.19632867 0.21058454 0.16152778 -0.13892834 0.1383525 0.1373197 -0.022647813 0.24150631 0.23357284 0.17959067 0.25908908 0.18092227 0.01626571 0.027790798 -0.14545129 -0.063774265 0.008667863 -0.04394805 0.10369115 -0.094873495 -0.16338034 0.11074963 -0.20162503 -0.044183306 0.16146725 -0.04873441 0.017603204 0.12172386 -0.03178527 -0.0059659425 0.08031363 0.16108392 -0.12784304 0.009324659 0.0207234 -0.035302505 0.08938428 -0.07200598 -0.044223744 0.30384207 0.0046512126 -0.0060984762 -0.0037828842 -0.038030542 -0.023802841 0.13022293 -0.025736228 -0.1000956 0.16200462 0.11135577 -0.11824987 0.07630273 -0.14632472 0.16483366 -0.009222526 0.12900357 -0.05412778 0.07728136 0.09472837 -0.16324407 0.07295302 -0.0064112064 -0.03156669 0.23818974 0.09335531 -0.1364097 0.062274788 0.07913512 0.06499556 0.23967606 -0.14709313 0.124279544 0.161387 -0.12698458 0.07974057 -0.017503884 -0.01017776 0.06037191 -0.034395635 -0.1028765 -0.023140721 0.10304743 0.054727253 -0.09528046 0.05250839 -0.01672521 0.06962043 -0.008908876 -0.2055476 -0.10067535 0.13931488 -0.1361813 0.115690984 0.07709128 -0.032639407 -0.052665617 0.06785756 -0.002340377 0.0033740702 -0.010814944 -0.048703685 0.05241038 0.020845033 -0.00790561 0.079503864 0.18456993 0.024809478 0.106930815 0.06907245 -0.11828625 0.045416377 -0.023317406 -0.031932637 0.015530099 -0.002122221 -0.117738776 0.10283892 0.08135958 -0.11125098 0.08836005 -0.02728269 -0.12768681 -0.019150533 -0.107409015 0.0407199 0.040645298 0.004301946 0.00421334 0.098691694 -0.09665042 0.088386446 0.116921954 -0.046638962 0.14300424 0.18283466 -0.035771668 -0.073124796 0.10609889 -0.042754795 -0.09620418 -0.087669484 -0.016532548 -0.0392553 0.076324746 -0.031002693 0.06298671 0.004182778 -0.16767806 -0.078496285 0.081569135 -0.02247349 0.1624751 0.16093914 0.12516731 0.057502493 0.11306749 0.09639207 0.063611485 0.1875224 0.14533372 -0.07507274 0.13127108 0.055871624 0.10640237 0.09273465 0.13285428 0.19935577 0.17825495 0.07919427 0.14921439 0.0047444245 -0.09678046 0.043850955 0.106698096 0.13951407 0.07864605 0.0037288854 0.08260216 0.1351492 0.08301239 0.027285496 -0.5138897 -0.6022378 -0.2928612 -0.46389395 -0.030105637 0.10423226 -0.33835328 0.09030948 -0.20159991 0.020518031 -0.08749592 -0.0074445046 -0.07128394 0.06985129 0.022699693 -0.076524 -0.27171543 -0.091870315 -0.31149355 -0.27503654 -0.046894975 -0.48683488 -0.0076452787 0.0067878203 -0.15787384 -0.13605922 0.060844254 -0.4056173 -0.21511532 -0.072195195 -0.31981128 -0.049979825 -0.1653167 -0.29804382 -0.04479926 -0.015924748 -0.27303508 -0.18465269 -0.040194668 0.069403805 -0.25047022 0.05273726 -0.22960384 -0.077217385 0.0009966543 -0.1311726 -0.2567722 0.003531542 -0.2588202 -0.1287383 -0.07205239 -0.24447262 0.012836784 -0.051537715 -0.33457878 -0.050357662 0.121518195 -0.24181953 -0.24999532 -0.0007377419 0.14399196 -0.25507587 -0.044266023 -0.18551186 -0.12745123 -0.06740257 -0.22964206 -0.07698173 0.018046029 0.011930682 -0.08320954 0.059204202 -0.07326323 -0.019064924 0.09064467 -0.042732906 0.0095486725 -0.048475035 -0.10842372 -0.053882916 0.021006323 -0.1786295 -0.028152734 0.04774177 -0.013632791 -0.061682813 -0.035864715 -0.10672378 0.038625967 0.06352121 -0.009908648 -0.077528656 -0.053938974 0.12247605 -0.09250157 0.14547764 0.14858858 0.021821411 0.0973358 0.26258013 -0.11403411 -0.081193514 -0.07035515 -0.03929392 0.09027986 -0.0696872 0.019603275 0.13724889 0.085963264 -0.119887926 0.09934587 0.07068095 -0.2502141 0.0468132 -0.122907795 -0.06338246 -0.092366524 -0.12622651 -0.11843976 0.06804912 -0.27882597 -0.18787552 0.028408265 -0.2228537 -0.23723923 0.14221673 -0.18402031 -0.0040640384 -0.061497975 -0.15633333 -0.16024755 -0.016060969 -0.3453947 -0.121956795 -0.028145071 -0.13241735 -0.31840882 0.13025428 -0.13568524 -0.17237164 0.033921 -0.28138673 -0.09529763 0.018705446 -0.25048858 -0.042791996 0.04003138 0.101836264 -0.15415193 0.08228289 0.30348423 -0.09747767 0.007998404 0.24921277 -0.093260035 0.047526848 0.15761341 -0.07974763 0.0029434403 0.17052373 -0.13581724 -0.0077192495 0.07352745 -0.16262555 -0.06509304 -0.01918371 -0.066676974 -0.04976345 -0.111636095 -0.053468104 0.14156382 0.13043344 0.052585207 0.015721358 0.020221973 0.0018462085 -0.046259522 0.48160237 -0.020271664 -0.038084153 0.2589202 -0.18548115 0.016766317 0.35879156 -0.17993556 0.04615285 0.3756991 -0.20158915 0.16927531 0.49608773 -0.21490471 0.06580842 0.13704845 -0.099602014 -0.035982866 0.30505863 -0.11195097 -0.072223306 0.14044046 -0.21186715 0.0010180657 0.22227082 -0.18468404 0.026458278 0.17030606 -0.23756398 0.020814814 -0.070179425 -0.39436466 -0.21000361 -0.21914577 0.2323402 -0.08387454 -0.10570133 -0.09679121 0.06340187 -0.08376289 -0.14995271 -0.12374478 0.032599993 0.012642854 -0.058286425 -0.07225389 -0.09973663 0.032988336 -0.1069827 0.046617758 0.008999781 -0.22527532 0.011582297 -0.09468314 -0.19879106 -0.016950095 0.06638657 -0.20515715 -0.030629853 0.031748876 0.011470343 -0.16775726 -0.088669874 -0.08895698 -0.0024732798 -0.060465958 0.19243723 -0.10466573 -0.08898117 0.08575503 0.039651044 0.0957602 -0.0449452 0.006566611 -0.07436066 -0.27394173 -0.042532608 -0.059198316 -0.15367335 -0.023862213 0.06680353 0.06613566 0.04446711 0.03227806 0.23481734 -0.08494098 0.120555654 -0.05499696 -0.052172568 -0.13572274 0.10301102 -0.040472966 0.07984125 -0.061193027 0.14725192 -0.007834956 -0.073919185 0.070073836 -0.027944377 0.07923182 -0.04581931 -0.026168825 0.07577448 -0.0543804 -0.06345258 -0.116651244 0.19706596 -0.08342719 -0.15247177 0.006170758 -0.075719036 -0.05994076 0.11453808 -0.0025994354 -0.04390942 -0.009920161 -0.03402367 0.07801134 0.24828047 0.010016441 -0.10471334 0.12809092 0.018460419 -0.0863681 0.10849754 -0.037330676 0.0215037 0.024650188 0.07452277 -0.14709263 0.18850422 0.058129225 -0.060376912 0.13213147 0.018589696 -0.15000689 0.04157613 -0.075263806 -0.13892615 0.08727542 0.029132167 -0.06320684 0.2055267 0.10025145 -0.00838742 0.06732841 -0.007542296 0.005233906 0.2124406 0.012197493 -0.13156803 0.2565018 0.050439194 0.053725123 0.17391779 0.078308776 0.08914419 -0.022528727 0.08618327 -0.027128778 -0.021439055 0.0008433909 0.094618075 -0.03804003 0.08029288 -0.04172593 0.019834075 -0.04907473 -0.110930294 -0.042720772 -0.06370001 0.061530247 0.17160863 -0.057156324 -0.015134309 -0.02982059 0.09116029 -0.004978208 0.07245272 -0.017543685 0.06832874 -0.02298637 0.06097815 0.1266965 0.025258783 0.062983654 0.1150294 0.14447011 0.08341532 -0.000845941 0.13811244 0.013037722 0.049450286 0.111817285 0.07921564 -0.055671487 0.12755592 0.0076574413 0.16877648 0.17649262 -0.043219935 0.08667815 0.025546955 0.018682621 0.042477354 0.052564543 -0.0970472 0.12164415 0.23882852 -0.046163607 0.24945982 0.20810549 0.05700058 0.16138902 0.12837888 0.072985545 0.25222713 0.26504838 -0.064696416 0.12054159 0.112551704 -0.07729614 0.08307121 0.09380613 0.005968903 0.08760492 0.029797582 0.045437824 0.17263706 -0.026521279 -0.019647704 0.11920404 0.2212716 -0.12296299 -0.042262916 0.13954747 -0.017351964 -0.09367686 -0.111522846 -0.07656742 0.31548867 0.08532598 -0.06839212 -0.109711364 0.018969085 -0.028290851 0.10555084 0.12621382 0.12720416 -0.0037150015 0.06653694 -0.09668207 0.057673555 -0.15160576 -0.03561888 -0.032038566 -0.13917592 0.0011832783 -0.1504545 -0.12481869 -0.009707888 -0.12772328 -0.11320659 0.0013953969 0.09176376 -0.13865457 -0.010426879 0.0035418153 -0.25900024 -0.04305874 0.10991015 -0.13402057 -0.098097555 0.064260945 -0.1543297 0.018254308 0.0016886359 0.07454228 0.047529444 -0.24330567 0.043346062 -0.007129359 -0.025134593 0.012780537 0.058260888 -0.09419496 -0.20550182 -0.02005664 0.0435562 0.11007756 -0.041181687 -0.06716754 -0.040451 0.02383019 -0.08077756 -0.039139237 -0.1157198 0.0653285 0.12104028 -0.057637133 0.26861146 -0.009752199 -0.027476817 0.25750616 0.033375222 -0.08137358 0.13664182 0.003208581 0.03127553 -0.08192813 0.044646982 -0.06847695 0.13993834 -0.11541246 -9.927935e-05 0.15866044 -0.014540591 0.06159959 0.038958028 -0.09227371 -0.0445001 -0.08389495 -0.059414133 0.065505564 0.05092921 -0.010707731 0.05059812 -0.039286908 -0.051211786 0.034752823 0.11666621 0.08092919 0.037156392 0.26824448 0.066921994 -0.024569124 0.3307444 0.055759825 -0.053964574 0.055999666 0.05509372 0.014607271 -0.17793961 -0.021421688 0.0005533235 -0.24792439 0.15679134 -0.096617386 -0.14973061 0.070419185 0.007842384 -0.24923985 0.027662298 -0.07582728 0.15830873 -0.025699647 0.09642087 -0.0794009 -0.056525376 -0.044175826 0.03795673 0.056913402 0.08457277 -0.012371547 0.121657394 0.050962567 0.028957741 0.07672211 0.040628362 -0.08697992 0.0076101334 0.118490554 -0.025974449 -0.012931508 0.0063689547 -0.12615013 0.016024232 -0.0115454 0.005448068 0.17349379 0.0024720868 0.16572012 -0.031406116 0.09858515 0.0060481736 0.167986 0.03607585 0.07981597 0.07263564 -0.0615087 0.08877127 0.050401065 0.10607147 -0.04380826 0.11718225 0.08005455 -0.030481083 0.048527602 0.07284126 -0.117868856 0.1075016 0.06481994 -0.21152523 0.053465303 0.08550949 0.061898522 0.15148094 0.09215837 0.14425287 0.05938597 0.12058034 0.05744328 0.04087388 -0.0019106092 0.039993163 0.08592113 0.030980978 0.122129746 0.11238692 0.026651796 0.2163884 0.08561149 0.056450546 0.16877723 0.051864147 0.057148714 -0.008298122 0.13641483 0.09914245 0.17296164 0.081859194 -0.045955718 0.03385912 0.055774994 -0.11072928 -0.04034128 -0.016645594 -0.014544006 -0.10335432 -0.017693533 -0.12672016 0.019959409 0.08348781 -0.005273506 -0.17370543 -0.08663299 -0.07643096 0.15103719 -0.008318364 -0.051687486 0.064140104 0.03955314 -0.042320456 0.09511295 -0.060877763 -0.14825214 0.09932287 -0.10882665 -0.11710117 -0.48041183 -0.326165 -0.06413621 -0.42464194 -0.35089412 -0.07210692 -0.32248178 -0.28000072 -0.05714947 -0.120685644 -0.06715037 0.029409071 -0.2682921 -0.259892 0.03197287 -0.19878434 -0.2211672 0.035738777 -0.0047643534 -0.35930732 -0.047151703 0.1001146 -0.1613241 0.13207342 0.22086276 -0.02061988 0.011900599 0.31296283 -0.0135156335 0.08913873 0.14628735 -0.080628425 -0.037986066 0.09521624 -0.09760777 0.03712508 -0.080825634 -0.14887282 0.0968517 0.22062315 -0.25804803 0.15571453 0.024431767 0.041173194 0.025630537 -0.13196234 -0.07916402 0.04285368 -0.1262968 -0.1742356 -0.12347317 0.08125673 -0.2324941 -0.05610709 -0.10434467 -0.01990936 -0.0020495704 -0.07902134 -0.059821405 0.015151057 -0.021973187 -0.07382583 0.031466708 0.0402626 -0.1338216 0.1412196 0.07349578 -0.022566257 -0.07818295 -0.112445086 -0.09046542 0.022178937 0.03375619 -0.12723812 -0.0387192 -0.032686293 0.038085256 0.030876575 0.023146238 0.07179908 0.017298544 0.10918302 0.093367174 0.042457584 -0.08935867 -0.05198463 0.110913016 0.102880456 0.009268401 -0.055949654 -0.01342705 -0.026005028 0.24163762 0.03582339 0.03466017 0.122852966 0.015577866 -0.0037014429 0.06653674 0.15245529 -0.058526795 0.16709627 0.1522011 0.11751058 0.26131564 0.065666035 0.056830607 0.025550354 0.15310997 0.15150416 0.05000593 0.22910674 0.028267698 0.1980059 0.08178455 -0.030445093 0.033281203 0.06820203 0.013426186 0.16923912 0.15209123 -0.15176482 0.17452674 0.028603086 0.026357034 0.07635337 0.16465077 0.059528194 0.077360034 -0.063678004 0.012727114 0.28117007 0.11692726 -0.038882673 0.23416337 0.0041148723 0.028936258 0.04381302 0.06082981 -0.071179904 0.035964362 0.16262901 0.12456716 0.14572729 0.022693364 -0.0933751 0.123820975 0.032858547 0.10335672 0.18141188 -0.028169017 -0.10248202 0.15819004 0.10971395 -0.0287542 0.04595466 -0.01332163 -0.026198957 0.05163076 0.02605774 -0.08780913 0.0915238 0.029066375 -0.008870736 0.09660527 0.06617551 -0.018514538 0.21392854 -0.07241003 0.011796341 0.03749199 0.08953431 0.02548519 0.078259945 0.09836369 -0.07531745 0.13451707 0.09638814 -0.100902975 0.15367997 0.020627195 -0.12849745 -0.09290052 -0.13971919 -0.051861323 0.0144190015 -0.097334296 0.0696178 0.11973926 0.07651011 -0.11251244 -0.01029066 -0.40829715 -0.79082245 -0.12143661 0.06341162 0.17435665 -0.048610628 0.2160998 0.09391666 -0.058345355 -0.14047603 -0.16690907 -0.02440835 0.0058971294 -0.029096952 -0.09331186 -0.057005793 -0.17531323 0.08861783 -0.22933233 -0.23465611 0.034857333 -0.3708801 -0.17590773 0.041685753 -0.06713175 -0.18370686 0.12953448 -0.29404345 -0.14979723 -0.00047570292 -0.44614407 -0.029021053 0.031036746 -0.270935 0.03818959 0.01842917 -0.1845884 -0.10526077 0.14323786 -0.12597772 -0.06915684 0.0037356394 -0.26082343 -0.10916816 0.08468789 -0.16731565 -0.23171364 0.02370345 -0.18041071 -0.09366694 -0.031213712 -0.22792234 -0.13258068 0.16399252 -0.38190377 -0.07765977 0.09405678 -0.23541206 -0.109216936 -0.010643546 0.06935914 -0.2516278 0.00035837526 -0.12210189 -0.23052956 0.16243522 -0.41011226 -0.12370123 0.17423034 -0.2566692 0.036924355 -0.035681553 -0.235603 0.05790422 0.019416524 -0.15688834 -0.07071075 0.17247085 -0.21231847 -0.084186696 0.03718632 -0.21197495 -0.13382334 0.10660936 -0.018342823 -0.12346809 -0.0028648688 -0.092053995 -0.034227952 0.054825313 -0.011132152 0.055456832 -0.038016777 0.07748839 -0.11345729 0.10023881 0.06744063 0.0085123405 0.04028665 0.049601935 -0.12833945 0.15310058 0.12287405 -0.2379543 -0.012775055 -0.27150327 -0.11786652 -0.01947917 -0.0037792039 -0.10960477 0.096967414 -0.045368776 -0.08726693 0.06618213 -0.2669609 -0.085436486 0.013883819 -0.005376093 -0.17219147 -0.010413308 -0.41962528 -0.102554895 0.1805575 -0.28005788 -0.22474232 -0.009111243 -0.31659064 -0.15641668 0.046230275 -0.24209559 -0.19965844 0.057800587 -0.2686339 -0.011729132 -0.0145224305 -0.13517289 -0.20494872 0.07227372 -0.024892818 -0.19931632 0.12605377 -0.080346435 -0.049396798 0.12749085 -0.07184537 -0.15162845 0.08057347 0.20759583 -0.098971345 -0.017329574 0.3968778 -0.07350227 0.019060727 0.14689323 -0.1265478 0.10862436 0.08500513 -0.099211015 0.075593226 0.20211238 -0.090097 0.055573665 0.12433424 0.00082004274 -0.011252857 0.087074384 -0.15144345 0.016746402 0.10627461 -0.02250546 0.123749085 0.010929626 0.000104202416 0.097291425 0.04153447 -0.004125213 -0.08897219 0.5288407 -0.16862528 0.16351573 0.12493282 -0.13117822 0.18603912 0.35485178 -0.12426817 0.039151218 0.37493998 -0.22261617 0.09101078 0.29334563 -0.0732881 0.016839541 0.28213567 -0.22006857 0.12512596 0.28929576 -0.1554006 -0.011955336 -0.058131605 -0.09391995 0.017335245 0.17114054 -0.28549325 0.017083649 0.08785296 -0.2662865 0.07568481 -0.49853137 -0.43089467 -0.118246734 -0.2653898 0.094095305 0.014605104 0.008433427 -0.02794682 -0.11435735 -0.13478705 -0.06966449 -0.086817764 -0.0040662624 -0.07209904 -0.16149971 -0.15483008 0.06255371 -0.066912405 -0.26399255 -0.042166583 0.04347053 -0.19550695 -0.022773176 -0.022753326 -0.31164387 0.0043659024 0.12600005 -0.19211599 -0.09890248 0.07238069 -0.13349213 -0.115142845 0.14361371 0.03362351 -0.07886096 0.1732656 -0.0031104318 -0.025238965 -0.019154409 0.030293012 -0.091743395 0.09602849 0.08520703 -0.017876793 0.113345645 -0.26701728 -0.0070547746 0.006409016 -0.2231531 0.02531566 0.010231461 0.002023549 -0.031123688 0.082055695 0.041709192 -0.0146952765 0.13305539 -0.007822898 0.025793048 0.10650772 -0.020058228 -0.049014535 0.14963391 -0.12397635 0.08533928 0.04931838 -0.23463221 -0.057471026 0.02752789 -0.20383842 -0.06673454 0.11192685 -0.15371378 0.016410548 0.0360754 -0.05055753 0.050869547 0.039442655 -0.06587166 0.055572167 -0.09123685 0.045624558 0.17361924 0.060672764 -0.07293568 0.11610258 -0.07577832 0.016914405 0.1616488 -0.009393703 -0.049380872 0.04582711 0.05794227 -0.10277828 0.026025428 0.031512875 0.006251383 0.10263012 -0.019219518 -0.075132616 0.15433493 -0.011817871 -0.13636856 0.09371854 0.012476441 -0.15851794 -0.013991714 0.027912205 -0.04535484 0.19229603 -0.05400669 -0.042076766 0.089152224 -0.027667155 -0.11796731 0.1385624 -0.08294015 -0.048535183 0.26572487 -0.010141688 0.083085366 0.12607208 0.08426764 0.024879692 0.12490217 0.06859662 -0.071587816 0.048565265 -0.0869022 -0.053570412 -0.06955692 -0.023095645 -0.0033927064 0.0922241 -0.03687312 -0.047936596 0.06241327 0.03253749 -0.074445575 -0.04783591 0.13258241 0.042201985 0.12874751 -0.031819258 0.12634473 0.14946224 -0.041950293 -0.061777603 -0.07472017 0.089279905 0.022945385 0.15935919 -0.039822962 0.07817534 0.07117468 -0.044721037 -0.044025015 0.06657654 0.07619185 0.124771155 0.19348195 0.08399918 -0.0475052 0.0096976515 0.09727925 -0.04055538 -0.005354463 -0.003951354 0.032945547 0.08660045 0.06789601 0.19420055 0.14163817 0.12416451 0.043707814 0.13857262 0.058940053 0.14602295 0.075901754 -0.040164474 0.10947219 0.3363362 -0.008430707 0.24585772 0.12059807 0.11357248 0.11615319 0.38645813 0.106553644 0.099533424 0.19949526 0.10184258 0.09820569 0.20602892 0.17200153 0.046208967 0.062768094 0.006251003 0.10925144 0.09571557 0.05287455 0.26579717 0.21398056 -0.011451629 0.1472269 0.06317424 0.08913236 0.18922767 0.082975864 0.042541195 0.5106343 0.55223566 -0.10902341 -0.0020931007 -0.44849 -0.0060058148 0.03641381 0.02258014 -0.14253446 -0.06759809 -0.040599465 -0.07874053 -0.107830785 0.23240618 -0.36342946 -0.18387261 0.1747232 -0.4599885 -0.01893553 0.32003033 -0.45245925 -0.13429919 0.10697359 -0.4182128 -0.13494223 0.22689171 -0.38080326 -0.07754718 0.32739794 -0.25948837 -0.048226688 0.07498407 -0.39023578 -0.018199662 0.21424143 -0.30940586 -0.028158197 0.039848987 -0.3023945 0.0029233813 -0.037829176 -0.3345973 -0.012810475 0.0770653 -0.33448097 0.04506567 0.123867214 -0.31178582 0.059603784 0.20539185 -0.18927468 -0.15082657 0.20698103 -0.26312992 -0.0080456 -0.06363328 -0.06350184 0.09795585 0.045204718 -0.20970705 -0.168325 0.09027296 -0.15911496 -0.18997055 0.044269867 -0.09022365 0.015837569 0.2213212 0.020124167 0.06366334 0.21708219 -0.016523201 0.10226929 0.17770721 -0.2359628 0.1942123 0.29252288 -0.029982576 0.22547036 0.21178426 -0.19410755 0.22861813 0.30734617 -0.30621168 0.23619188 0.15519565 -0.12511237 0.07538721 0.40357122 0.04718809 0.060492765 0.24401155 -0.32642668 0.07808682 0.117653176 -0.13917555 0.21212937 0.08859522 -0.16762015 0.3383348 -0.10485641 -0.13488302 0.12026842 0.35174352 -0.14545013 0.23965423 -0.045086075 -0.12823485 0.38183734 0.15373315 -0.16671918 0.0731341 0.050770324 -0.022252731 0.02917838 -0.014844111 -0.07052581 0.035182305 -0.107594654 -0.014209853 0.2504547 -0.18960814 0.10347683 0.2594091 -0.10141295 0.04907738 0.11259585 0.194873 0.1809866 0.12046979 0.2362762 0.17463173 0.09260005 0.3095464 0.05048023 0.1997026 0.16400439 0.22269578 -0.17179833 -0.0886814 -0.017686091 0.021483462 0.12975067 -0.0101540275 -0.36584112 0.33552817 0.08793274 -0.14513947 0.12214105 0.06867191 -0.054690443 0.19748116 -0.009129188 -0.19346403 0.19416067 0.14700644 -0.020536795 0.19195448 0.1433025 -0.29167792 0.09100435 0.18091829 -0.047030874 -0.20282213 0.1649019 -0.20291653 0.019885384 0.19024383 -0.311112 0.064541064 0.06795566 -0.1553071 0.26912528 -0.057795804 -0.2015288 0.21864356 0.03360416 -0.48535767 -0.0024583917 0.08915049 -0.25501168 0.06830243 0.13130875 -0.21204099 0.043163482 0.07519145 -0.29282895 0.21990645 0.115481324 -0.19827785 0.17913452 -0.065750256 -0.08069505 -0.105338335 -0.028051011 0.0028854387 0.100533634 -0.061011966 0.0023653198 0.15043384 -0.11271484 -0.13461822 -0.042425625 0.15485184 0.097786695 -0.20575148 -0.1684887 0.50491184 -0.5913756 0.19450231 -0.5776922 -0.106981635 -0.19491695 0.12204463 -0.11716771 -0.25167146 0.00945648 -0.044619802 -0.071604 0.35539025 -0.2982529 -0.2201413 0.43710184 -0.38190094 -0.13441117 0.34792292 0.040272873 -0.2103192 0.21912433 -0.11935369 -0.018608542 0.25348744 0.042819515 -0.07443154 0.20100166 0.1249162 -0.22407019 0.15620457 -0.01976558 -0.07421015 0.32836646 0.20864452 -0.005583843 0.13316448 0.04777899 -0.05782558 -0.009409886 0.19359012 0.14639476 -0.043324824 0.055216093 0.16322719 -0.03553844 0.053605326 0.10523121 -0.18037245 0.1105326 -0.06911259 0.0047863373 -0.009145201 0.045454275 -0.09873654 -0.039175782 -0.085255444 -0.1495348 -0.071014635 -0.17746535 -0.11640437 -0.08682412 0.038413674 -0.10406779 -0.101918586 -0.068425246 -0.09296477 -0.100544445 0.16702604 -0.103356645 -0.07361689 -0.08508122 -0.23851323 -0.074631296 0.07768314 -0.10985838 0.0157501 -0.015376159 -0.014841533 -0.11033746 -0.0048919437 -0.08818719 -0.019303722 0.009434293 -0.06631343 -0.08997095 -0.0059417025 -0.1830062 -0.12628406 -0.10582118 -0.13062571 0.055002 0.04530872 -0.20160682 0.0068206694 0.021254268 -0.22967006 -0.18792748 -0.091029815 -0.14040294 0.0053945254 -0.057070054 -0.07479894 -0.14265588 -0.028733844 -0.15566878 -0.010585009 -0.080497004 -0.079353474 -0.06149193 -0.054559853 -0.0750648 0.14669433 0.12890892 -0.2248981 -0.07478532 0.045136914 -0.16363578 -0.019784667 0.0317726 0.060536094 -0.08263217 -0.012387828 0.039565735 0.0049503623 0.010462396 -0.02329317 0.2639479 -0.13305704 0.07811146 0.13470115 0.19553515 0.07680749 -0.021865318 0.0946421 0.03677041 -0.049757447 -0.010217022 -0.040871844 0.08961065 0.017626125 0.0694742 -0.07183936 -0.022229966 0.10202508 0.14270405 -0.027715277 0.06677413 0.024381693 0.022672717 0.049365666 0.15424821 0.004728161 0.11387797 0.07380335 0.017576821 0.22620279 0.12875988 -0.0014268325 0.05644624 0.07972545 -0.10240814 -0.08149747 0.09734318 -0.026811546 0.061871503 0.10568919 0.13122904 0.09966509 0.06271786 0.00076929014 0.07657662 0.052529313 -0.22790492 -0.043346003 0.078373335 -0.01859901 0.08077821 0.18155594 -0.09435591 -0.0022108408 0.116382785 0.0125276465 -0.022198115 0.18233581 0.00843474 -0.045860767 0.04526313 0.011179415 0.029685866 0.027738197 -0.12839203 0.14478354 0.04164758 -0.08697256 0.16205655 0.062496714 0.07268967 0.20130743 0.006745623 -0.066414475 0.063754305 0.11897789 -0.044111 -0.07240824 0.034318876 0.00093157147 0.097983874 -0.084825374 0.020369928 -0.028639324 0.1916239 0.08859392 0.037718244 0.067656964 0.063929625 -0.1075175 -0.03225326 -0.03642332 -0.026859296 -0.011145498 -0.30662563 0.018437391 -0.0023408243 0.004343894 -0.06851866 0.09665371 -0.23961015 -0.00802741 0.1278365 -0.29624358 -0.13826248 0.047103513 -0.10071187 -0.29315796 0.0379288 -0.03307499 -0.12553272 0.030914908 -0.15865208 -0.11841749 0.18249333 -0.1748623 0.06852292 0.040428434 -0.16718459 -0.12206157 -0.04655486 0.019207852 -0.0068661375 0.09778241 0.1817065 -0.08942045 -0.06669396 0.13040407 0.30601934 -0.10077388 -0.089699924 -0.01570017 -0.068132624 0.08140635 0.18478312 0.23535432 -0.14487547 0.106642716 0.14003335 -0.09249879 0.00070368295 -0.1227555 -0.041942917 0.029193131 -0.042816706 0.1093685 -0.21467358 0.04725742 0.06977967 0.030928776 -0.05760776 -0.035575356 0.02539481 0.10809085 0.047492415 -0.028553307 -0.032970816 -0.057949334 -0.1021057 0.076535314 0.14239852 -0.18306924 -0.034146007 0.14951518 -0.16046263 0.11965685 0.29085127 -0.18361814 -0.050914474 0.2016701 -0.20024508 -0.12535748 0.25738725 -0.1539505 0.17931034 -0.049946465 -0.2705579 -0.09280267 0.04879183 -0.07828112 -0.1976181 -0.053212058 -0.21045363 -0.03642794 -0.053335007 -0.11056467 -0.07252014 0.34861746 0.06722164 -0.03757953 0.2681118 0.030022113 0.10899043 0.11566587 -0.099191286 0.007813174 0.10460013 -0.0017018634 -0.034305975 0.13601384 0.1190173 0.055115245 0.02493074 -0.11275955 -0.13196577 0.2745671 -0.13482521 0.07326379 -0.09684113 0.012587253 -0.11589833 -0.091421366 0.15217713 0.05133255 -0.06395047 0.16189165 0.12251509 -0.13505971 -0.152755 0.058259487 -0.047513857 -0.11688655 -0.081467725 -0.16174863 -0.01612691 -0.254972 0.1144292 -0.18110338 0.048405025 0.04644726 -0.14098433 -0.10379757 -0.108361214 -0.1507701 0.012137389 -0.16668335 0.02664539 0.033042066 -0.036807455 0.16834685 -0.06781163 0.05580649 0.095940925 -0.054613784 -0.1603408 0.25624588 -0.27877527 0.09359172 0.045689743 -0.059546977 0.11358553 -0.059167527 -0.13589466 0.09906793 -0.1734363 -0.0549098 -0.18863347 -0.21106517 0.07676396 -0.16119048 -0.09406552 0.009765581 -0.059036218 -0.08394896 0.1640205 -0.046276145 -0.039242923 -0.016436603 0.027065275 -0.015034389 0.017590389 0.1036434 -0.16934948 -0.04608172 0.2623776 -0.32988384 -0.16159445 0.12783056 -0.14356053 -0.112605505 0.053015407 -0.106226176 0.07632554 0.12510525 0.047278963 -0.09268499 -0.06135774 0.045245163 0.15217762 0.15755755 0.2741953 0.0073140725 0.04510091 0.12248367 0.049599692 0.30605626 0.0929547 -0.13221177 0.052066498 -0.015768414 0.048369743 -0.16225809 -0.08756804 0.30048877 -0.106201306 0.08713599 0.21149734 -0.02133297 0.05710918 0.18813308 -0.0046975487 -0.009608884 0.35656458 0.018261686 -0.04237888 0.335368 0.053941984 0.024037873 0.03405807 -0.029593674 0.28796956 0.134824 -0.2061043 0.09784419 0.35127753 0.026540153 0.1672475 0.15394972 -0.19490825 0.071655296 0.30880567 -0.12725253 0.22663212 0.19854195 -0.1980624 0.14902255 0.0482683 -0.14410138 -0.058989894 0.13399416 -0.2353477 -0.019219017 0.18713535 -0.1483184 0.01771993 -0.028612066 -0.17355442 -0.056638632 0.32148913 -0.19542763 0.08354814 0.35545358 -0.07326231 0.12945287 0.16449313 -0.1442252 0.1197038 0.25766358 0.014880664 0.20467782 0.05539505 -0.0867809 0.13824105 0.08636008 -0.1053436 -0.030077757 0.2954033 -0.15781955 0.034141943 0.3083997 -0.23533127 0.17883162 0.24437322 -0.037770543 0.13690554 0.41807413 -0.036970843 0.040046707 0.28435025 -0.185095 0.13643742 0.19787325 -0.2496465 0.0878663 0.19021672 -0.09791653 0.16356401 0.48540848 0.076212876 0.114777334 0.3647462 -0.08203414 0.07907548 0.30501297 -0.060743783 0.058411703 0.2373077 -0.09864073 -0.103815645 0.28409427 -0.20011303 0.0033557618 0.18449302 -0.0972156 -0.03227037 0.2671539 -0.08052089 -0.03206862 0.24660988 -0.16157126 0.16908465 0.10905145 -0.13450421 0.057502303 0.15890698 -0.11962487 0.23300767 0.06697084 -0.16489966 0.018445136 0.37432647 -0.10369357 0.08907708 0.30838573 -0.10943997 0.105083935 0.035021216 -0.16986041 0.14803888 0.19732809 0.07867521 0.12787579 0.18945637 -0.08607844 -0.11333676 0.15031585 0.07270413 0.10117847 0.43711933 0.11901243 0.058788843 0.19722514 0.14686082 -0.10142003 0.23027006 0.10751075 -0.114899606 0.13150488 0.013161262 0.08740311 0.28459433 0.06244048 -0.026251204 0.19501153 -0.17633465 -0.1778248 0.13753816 -0.020326879 -0.06813585 0.065082334 -0.08557907 -0.019826416 -0.03669591 -0.16229756 0.05569972 -0.014341472 -0.07099756 -0.023517445 0.101909555 -0.058835607 -0.1682758 0.28171414 -0.029684674 -0.078993894 0.61244434 -0.06275127 -0.0770524 0.32013196 0.063193075 -0.17432171 0.3821228 0.13154347 -0.1412956 0.2677216 0.056633446 -0.17045617 0.1305155 0.15022856 -0.023788238 0.056580193 -0.098206244 0.13007554 -0.1372408 -0.06824799 -0.36876532 -0.49977267 -0.05332538 -0.124506846 -0.008819964 0.108692266 -0.050022252 0.12791356 0.13597383 -0.001466424 0.06765135 -0.11154124 0.029874902 0.10277304 -0.16551177 0.018779546 0.014013025 0.23848662 0.07314842 -0.05475314 0.1607137 0.19277316 -0.19614077 0.1499789 -0.08554384 -0.07419996 0.18928328 0.0004575795 -0.08111773 0.17347997 -0.0109455325 -0.20600627 0.028661106 0.06604238 -0.06096462 0.091137625 -0.18323223 -0.052520826 -0.0026336564 -0.1168319 -0.08163723 0.03594235 -0.010883958 -0.05163439 0.14998795 0.023814872 -0.14517778 0.05362652 0.07202803 -0.060159598 -0.085342705 0.03467995 -0.063687466 -0.08260253 0.17195639 -0.007357173 -0.21988954 0.19056147 -0.041388005 -0.17993884 0.07542524 -0.118218385 -0.15320875 0.097875044 -0.05979905 -0.07325013 0.004812939 -0.31450865 -0.0969523 0.102319516 -0.13357553 -0.17497855 -0.056853067 -0.12556912 -0.016210368 -0.09319471 -0.014699786 0.15691204 -0.049785137 0.063735336 0.040216878 -0.109858364 -0.103202075 -0.014678794 -0.20652881 -0.16552591 0.02422393 -0.014377137 -0.1711568 0.03256351 -0.19754013 -0.10447808 0.2553032 -0.047740873 -0.35804135 0.19539839 -0.08632976 -0.2672884 0.08752679 -0.15289861 -0.23591596 0.051476642 -0.096753605 -0.21054435 -0.23456144 -0.11321386 0.080847256 -0.1794142 -0.0618972 -0.038897805 -0.0795862 0.06200719 -0.10416295 0.05022931 0.060490526 -0.35443494 0.069631174 0.14523499 -0.12760952 -0.00811423 0.0038668325 -0.30848983 -0.1789385 0.109807596 -0.21529241 0.05570075 -0.077470735 -0.1386037 -0.040546257 0.038027085 -0.16920395 -0.1306641 0.032199286 -0.10068736 0.025182683 -0.027853394 -0.17491624 -0.17712797 0.079927236 -0.19997129 0.05848969 -0.049097307 -0.04724137 -0.06757403 0.0014569816 -0.14777951 -0.1235396 0.08472119 -0.110581495 -0.09630281 0.10241351 -0.19417702 -0.09126932 0.06712943 -0.2843707 -0.15250832 0.16904646 -0.20044819 -0.09901097 0.073098056 -0.23983006 -0.073999785 0.091586575 -0.15698197 0.08393202 0.25094727 -0.17971542 -0.06876309 0.1709743 -0.38595867 -0.110359766 -0.06819409 -0.16354656 0.012774654 -0.03015354 -0.18741289 -0.03932286 0.10181021 -0.11460765 -0.02650412 0.21340583 -0.23411013 -0.19347566 0.19711778 -0.065170355 0.05769732 0.009517517 -0.14724985 0.19585082 -0.014615978 -0.04055223 0.15836275 0.20287196 -0.16013859 0.045307618 0.17164968 -0.13465443 0.059331246 -0.031837575 -0.2616899 0.08303965 0.06992989 0.056389485 0.09087104 0.006982321 -0.020212628 -0.057118475 0.2317954 -0.28592825 0.2667508 -0.09448015 -0.09999129 0.04351325 -0.055708632 0.094707556 0.04157786 0.04385488 0.123145655 -0.11266774 0.26578328 0.5504852 0.09079994 0.10417827 0.4839329 0.16529359 -0.08937518 0.16560398 -0.032631986 0.01886935 0.40574828 -0.044136066 0.23564139 0.20088421 -0.0064192303 0.16544734 0.27455297 0.14538871 0.15493591 0.29123956 -0.026578376 0.12252264 -0.037924156 -0.09803977 -0.060612816 0.14765917 0.088928945 0.29894108 0.13945657 -0.103199616 0.4006242 0.27099892 -0.0361754 -0.027285932 0.1448536 -0.10071799 0.27075368 0.1037126 0.05333697 0.35694113 0.020615678 -0.06670163 0.25630265 0.2491186 0.049421437 0.17492414 0.2438048 0.153173 0.09603078 0.26376826 -0.1544899 0.21412656 0.29841426 0.0115141375 0.073053256 0.30799448 -0.19941047 0.10119429 0.39173126 -0.079281256 0.14740996 0.092597134 0.115980476 0.08237899 0.060193807 -0.053223435 0.15451361 0.07595382 0.06717452 -0.037395123 0.047339734 -0.06861647 0.11165826 0.09772739 0.14663059 0.2085589 0.24576777 0.06496992 0.1849846 0.078637704 -0.15261777 0.041548274 0.123393156 0.03848184 0.13265583 0.086347364 -0.040531043 -0.08571031 0.13887249 0.13277692 0.08989381 0.10459872 0.024939727 0.17933647 0.18293002 0.07341022 0.10370622 -0.019973543 0.095612034 0.07540146 -0.053720642 -0.16388291 -0.089829646 0.14868481 0.026428781 -0.07004002 0.110949956 0.0019696075 -0.12979749 0.11682395 -0.17619836 -0.11851754 -0.03271165 -0.015772097 0.020864893 -0.018043907 -0.059247196 0.0030711135 0.0011597266 -0.08689164 -0.10513414 0.019908901 -0.005945781 -0.089966536 0.066554494 0.023459842 -0.070790775 -0.04465905 -0.014181906 0.10233878 0.11043162 0.021168647 -0.055376504 -0.025971847 -0.14291526 -0.06914921 0.028928999 -0.057758126 0.21705443 0.086642615 -0.0492726 0.06421441 0.15183978 -0.010381791 0.083076365 0.057169404 0.049229518 -0.059695687 0.130862 0.01591747 0.07089188 0.029091937 -0.12697431 0.0652698 0.05642792 -0.09361214 -0.05063513 0.029787602 0.033277795 0.013411481 0.021421336 -0.068562604 -0.0826647 0.053327 0.004000784 -0.1204603 0.0060701477 -0.06295616 0.11091851 0.1652759 0.024520917 0.0068420456 0.022598464 -0.066020355 0.0039827838 0.18598953 -0.026896225 0.03143226 0.104356 0.12729624 0.011568476 0.15515006 -0.04176099 0.16142033 0.0026751722 0.000137267 0.14088385 0.15263297 0.05517175 0.09316996 -0.033788342 -0.093390144 0.14571922 0.028122574 -0.112698674 -0.14965796 0.13184832 -0.043812044 0.055426314 -0.06617621 0.019295592 0.10278064 0.120893955 -0.13545254 0.027184341 0.0023277723 -0.28168005 0.024427772 0.15663311 -0.049744014 0.15122393 -0.043031733 -0.29125097 0.23718522 -0.3427345 -0.2122954 0.20368049 -0.11662755 -0.33250436 0.17073897 -0.014259137 -0.25643176 0.2692278 -0.07578057 -0.17395948 -0.07397479 -0.0570129 0.090043835 -0.08489407 0.03350821 0.015602592 -0.12567042 -0.1977779 -0.2503488 -0.13393436 -0.015200953 -0.27478364 -0.051702235 -0.1733739 -0.11576604 -0.1848201 0.0006250874 -0.23799124 0.03331953 -0.06361603 -0.093590125 0.17142932 -0.09674989 -0.2491284 -0.13503866 -0.107302904 -0.16606016 -0.24103257 -0.08619745 -0.25807258 0.051116157 -0.0007193695 -0.33140907 0.011259595 0.10533291 -0.22780003 0.0034294436 0.15778673 -0.19519535 0.23398906 0.13051973 -0.24164256 0.0086479215 0.048261736 -0.105363466 0.11517361 0.13140367 -0.10495935 -0.10517882 -0.030040497 -0.009969256 -0.028726025 0.04996658 -0.23655483 -0.041788794 0.1419041 -0.17497966 0.22790854 0.020448716 -0.22365652 -0.04684416 -0.05372623 -0.15709911 -0.19384176 -0.05211611 -0.16145954 -0.211459 0.18356903 0.035787612 0.111837044 0.14281161 0.055126473 0.07083315 0.10009036 0.05601157 0.055577848 -0.01703384 0.03440865 0.009485581 0.12930131 0.0054716407 0.32153174 0.1934071 -0.109077536 0.50884956 0.09451884 -0.18998161 0.4062745 0.1123096 -0.1327349 -0.04144073 0.28748107 -0.292305 0.0010205577 0.21161017 -0.05184338 -0.26090953 0.2779757 -0.18364345 0.13305408 0.18847793 -0.031989474 0.39416346 0.14639765 -0.13655911 0.15482397 0.017623998 -0.18681692 0.2511109 0.078750305 0.0038104753 0.13896975 0.183632 -0.04974893 0.4377229 0.15564597 -0.008353689 -0.14872383 0.018873697 0.013833069 0.0073503484 0.15733041 -0.013540941 0.1829279 0.08583935 0.11256945 -0.26861626 -0.044337526 -0.06893602 -0.16154717 0.020741291 -0.026059687 0.09508031 0.015640786 0.19298798 0.35756 -0.03894588 0.072834276 0.27242738 0.046982262 0.10810585 0.47440735 -0.0445386 0.22943646 0.06250721 0.07514898 -0.07605935 0.1987547 -0.03595466 -0.042204697 -0.00429355 0.05512604 -0.07666098 0.11709299 0.15121488 -0.19667749 0.13369776 -0.05007962 0.032550246 0.16426077 0.09121447 0.020455562 0.024464704 -0.06603419 0.14247005 0.10675168 -0.08040217 0.026616612 0.37026182 -0.10208567 0.1613758 0.32834443 0.007570294 0.12309836 0.058519427 0.11349819 -0.007887314 -0.53876114 0.25831038 0.009723747 -0.034779545 -0.58530474 -0.08579076 -0.07185893 0.025232177 -0.016448889 0.023729743 0.019170944 0.13397451 -0.06523965 0.07057655 0.34353763 -0.38559562 -0.040961817 0.3746367 -0.31317332 -0.17519161 0.14661227 -0.28598836 0.031528622 0.11073498 -0.15235096 -0.070597075 -0.13228424 -0.32612962 0.075813115 0.017580573 -0.26412928 0.13173983 -0.09122316 -0.16611095 0.15203914 -0.11173228 -0.15833831 0.004089709 -0.25301993 -0.09646335 0.010616604 -0.018012475 -0.10088482 0.10376275 0.06764987 -0.104329355 0.122413665 0.008392005 0.055026386 0.11464698 0.111462854 0.03831515 0.22362733 0.14133024 0.13584092 0.032330144 0.0019431171 0.08885842 0.03004892 0.21005084 0.14635754 0.12954885 -0.016836952 0.32266644 0.07260057 -0.0085653365 0.026470674 0.08451505 0.0027682816 0.077240855 0.18511683 -0.037462234 0.2638064 0.18160991 0.017300084 0.048286676 0.156674 0.00073571265 0.009432977 0.07563273 0.20821376 0.121001944 0.1154073 0.18758683 0.08020287 -0.0020520831 0.16049832 0.09687081 -0.13538651 0.3129852 0.011860892 0.03193341 0.06927035 -0.15521602 -0.023362566 0.15582573 -0.00022880081 -0.03924198 0.09756514 -0.053104166 -0.36241233 0.1828839 -0.16248088 -0.057402916 -0.021635713 -0.041175924 0.13960408 -0.06311645 0.012234041 -0.013542033 0.088594265 0.13132818 0.06726051 0.10750246 -0.07248985 0.0366216 0.076989375 0.1031857 0.0036893298 0.017049495 -0.030571673 -0.032843847 -0.025869226 -0.045446347 -0.029387234 0.084540315 0.11806912 0.047571488 0.13927507 0.18331872 0.0061164047 0.06298845 -0.12169055 0.042474087 0.22451018 -0.17912279 -0.023853065 0.15868588 0.06633617 0.018510707 0.11233896 0.0357935 -0.16040903 0.11254089 -0.11503705 -0.13062118 0.23526472 -0.1386401 -0.10232295 0.044178527 0.04537344 -0.14254059 0.15554854 0.112330064 -0.16403699 0.07612139 -0.042099964 0.042690914 0.21581686 -0.072550066 -0.06719841 0.079724036 -0.060466148 0.063085005 0.29244435 -0.15643428 0.03272581 0.28458932 -0.17694356 -0.17387182 0.2571024 -0.21356815 0.015005329 0.25644317 -0.008044045 -0.09528101 0.16258386 8.453047e-05 0.063385054 0.1396987 -0.038811468 -0.080567375 0.3378459 0.0001811435 0.014336314 0.12365884 -0.24306923 -0.047605135 0.1832252 0.024639225 0.048032492 0.28182316 -0.17674002 -0.117558986 0.22112869 -0.08472848 -0.11986462 0.12784025 -0.09646681 -0.11288985 0.2505251 0.16579965 0.00092312903 0.2905233 -0.19510119 -0.22212642 -0.10281375 -0.092850275 -0.63336396 0.04388029 0.028156038 -0.15899956 0.014400782 -0.26629427 0.10635609 0.30147177 -0.17455657 0.00984109 -0.0056745186 -0.15946035 0.08692377 -0.03136869 -0.14356507 0.025222309 0.13931803 -0.24342985 0.016853062 0.13705438 -0.18730903 -0.1411115 0.053633302 -0.13798615 -0.17965293 0.03896864 -0.080034226 -0.14065735 -0.09846329 -0.15887243 0.046722278 -0.068642795 -0.08585709 0.20598595 0.2879142 -0.005700455 0.3110149 0.3750892 -0.05138091 -0.07040042 0.23622274 -0.032727454 0.13804908 0.29172796 -0.15506648 -0.05141689 0.049950037 -0.1516176 0.32330242 -0.09719296 -0.20606984 0.0890977 0.09280177 -0.06469473 0.32131 0.055051982 -0.034718633 0.12506925 0.018385896 -0.12950522 0.020585021 0.043027636 0.057670973 -0.01384898 -0.0056585404 -0.10424636 -0.18037575 -0.06976804 -0.14143297 -0.25238347 0.030226743 -0.13802755 -0.030181197 -0.007183753 -0.18382235 -0.21528924 0.08281196 -0.12972657 0.098764084 0.0002980935 -0.057439264 -0.2590261 0.05321056 -0.024729041 -0.16165395 0.1155539 -0.15645473 -0.3001001 0.030870896 -0.08107517 -0.343704 0.31113255 -0.09684123 -0.28772226 0.13197783 -0.011660917 -0.35847622 0.20038462 -0.01259403 -0.39066574 0.06076463 0.033153478 -0.61037093 -0.050104972 0.066629015 -0.19651303 -0.022849582 -0.0050941366 -0.24459048 0.012716497 -0.09945698 -0.23113702 0.30293298 -0.12005719 -0.4837936 0.03255004 -0.0714371 -0.09438474 0.07866133 -0.047218483 -0.016649963 -0.06232275 0.066000864 -0.2994412 0.23487708 -0.014745674 -0.21672739 0.038546897 -0.13545883 -0.26673442 -0.04668402 0.03290074 -0.43502212 0.061391454 0.019187616 -0.2119831 -0.0056397687 -0.083393335 -0.16275305 -0.013938702 0.007893283 0.0069177193 0.11112236 -0.09262782 -0.27144092 0.09612889 0.007358029 -0.30922195 0.036833655 0.014130766 -0.2268249 0.07000818 0.09733073 -0.6038089 0.2728732 -0.05192389 -0.07369302 0.27388337 -0.04352308 -0.040805705 0.077917986 0.08503861 0.02467896 0.035500314 0.051743273 -0.0005461803 -0.03768064 0.09071123 -0.14038214 0.13706817 -0.008549721 -0.33010954 0.14547476 0.045540065 -0.02231467 0.16700134 0.12240668 0.102023 0.05589158 -0.03454952 -0.015037016 0.08746978 -0.017036183 0.30801538 0.09352775 -0.07685145 -0.23402067 0.22069843 0.023895238 0.104106426 0.12613066 -0.008059628 0.05087624 0.2239966 0.0045319526 0.019558972 0.2542996 0.120359294 -0.21168973 0.24103186 0.10986503 -0.07562252 0.25265342 -0.11181291 0.02843969 3.9799706e-05 -0.13163482 0.08321194 0.090512365 -0.19598502 0.049476888 0.10650328 -0.2033733 0.2447178 0.06258346 -0.25966898 -0.0193453 -0.12516874 -0.004727844 -0.07059652 -0.13864277 0.13860318 0.09809874 -0.04393274 0.06612708 -0.021526141 -0.22326364 -0.048000153 0.103829406 -0.24522248 0.04271217 -0.20248199 -0.20268175 0.032478597 -0.22328487 -0.10089699 -0.18067998 0.18014319 -0.15494855 -0.0785455 -0.041845545 -0.10545066 0.12032093 0.145023 0.083866484 -0.071947694 0.27459463 -0.2079388 -0.1419661 0.15750073 -0.29130408 -0.118536666 -0.008053473 -0.18571244 -0.07824589 -0.17498893 -0.15319097 0.09263755 0.03339972 -0.21566767 0.07621171 -0.024203703 -0.21734445 0.12865116 -0.06141945 0.09184508 -0.07220776 0.14662087 -0.13884874 -0.0415276 0.069770075 -0.0018266843 0.10995125 0.12545416 -0.27234438 -0.0565274 0.012978268 -0.19580002 -0.007330147 -0.07247247 -0.13637428 0.03857953 0.004852499 -0.033333253 0.07449963 0.17064083 0.054626286 0.19798273 0.08115347 0.09882622 0.010254999 0.01514904 -0.10670306 0.029135952 -0.023511892 0.12764007 0.15094952 0.031874362 -0.071230486 0.08083091 0.19324292 -0.019753668 0.10353642 0.06999869 0.018589422 0.08331466 0.13195968 0.2466783 0.2194744 -0.013055935 0.12539205 0.17768846 0.06714026 0.04973373 0.06721729 -0.093627095 -0.07686822 0.07743583 0.0033442453 -0.036821615 0.20648874 0.17846662 -0.04969242 0.17484811 0.033962306 -0.027190678 0.22742216 -0.02099467 0.018124921 0.08460642 0.15717266 -0.0406121 0.061698344 -0.08205694 -0.027377382 0.15810211 0.030453674 -0.27929756 0.063860744 0.05920647 -0.19574144 0.13080347 0.0752936 0.029857531 0.059056554 -0.06679625 0.04934829 0.045432787 0.051097404 0.021027666 0.052842423 0.00991078 0.13595499 0.23507392 -0.006552835 0.002632195 0.122470774 -0.009484901 -0.06787405 0.15696555 -0.14075187 -0.01013726 0.19298758 -0.1279621 -0.11506297 0.0776615 0.03130751 0.047716524 0.070680864 -0.029423641 0.06007078 0.19324769 0.010849195 -0.03044791 0.20008597 -0.12455405 0.041125976 0.19642161 0.11506609 -0.04627193 -0.00059019245 0.049265336 -0.025499554 -0.008223286 -0.07459423 -0.13495055 0.19147882 -0.076358475 -0.08993054 0.22634216 -0.11078568 -0.055146437 0.016732518 0.20383072 -0.026048196 0.14061026 0.008407784 -0.011560276 0.050109304 0.16704944 -0.028192991 0.1997274 0.05557122 0.09138027 0.06515257 0.032084435 -0.027074972 0.068920314 0.02852727 -0.05086889 -0.11591603 0.22047216 -0.06387835 -0.053359974 -0.13208877 -0.14192845 -0.19963673 0.021424431 0.011860111 0.0061642583 0.013132071 -0.026632996 -0.019934008 0.05733018 -0.018409442 0.11400062 0.1593337 0.10824202 -0.003086438 0.12005281 -0.017537402 0.029263811 0.050915394 -0.12980981 0.33712283 0.030567693 -0.2915612 0.13477683 0.0007560705 -0.1549015 0.16863504 0.12006139 -0.0707078 0.1954787 0.21910718 -0.20394498 0.15867421 0.052316546 -0.22857973 -0.057321746 -0.04303481 -0.2742306 0.05661119 0.016705984 0.009154742 0.3277389 0.23785087 -0.09642246 0.11527961 0.1845919 -0.0040128725 0.1524529 0.05066934 -0.04736702 0.26448047 0.04789173 -0.05225764 0.09429158 -0.058515243 -0.22530827 0.031774938 0.007046994 0.0718306 0.18450479 -0.032409318 0.12421146 -0.06746407 -0.13985945 -0.12182431 -0.23668003 -0.06281005 0.007482253 -0.07476347 0.028663587 0.08771638 -0.3110272 0.013292834 0.16016224 0.08253366 -0.12032687 0.20533395 -0.3553823 0.019452954 0.2330866 -0.14569117 -0.123020984 0.08067885 -0.24641836 -0.06583812 0.13614716 0.075065345 0.025438443 0.09254414 -0.14890683 0.1008067 0.122151256 0.04441544 0.0950513 -0.07574819 -0.12184333 0.026094947 0.13649283 0.079726264 -0.025403999 0.2027617 -0.18547037 -0.08191329 -0.0386681 -0.014534661 -0.076264925 0.24717209 -0.03587829 -0.16559063 -0.024979454 0.20056307 -0.02200955 0.0877428 0.27886418 -0.2289007 -0.059582893 -0.06860129 -0.07315326 0.13739233 -0.02866318 -0.20146912 0.04023514 -0.08332441 -0.035615124 0.13056922 -0.24794023 -0.19469973 -0.03347362 0.10616724 -0.16092652 -0.28261432 -0.03691719 -0.09575166 0.048917804 -0.22241591 0.051276762 -0.21328917 -0.43066016 -0.124176316 0.074643716 -0.4241749 -0.026337942 0.063290104 -0.029952459 -0.14251044 -0.0814619 -0.101954095 -0.19393364 -0.06948238 -0.2973926 -0.020326493 -0.033981547 -0.16638228 -0.042653482 -0.18939611 0.011325232 -0.09363794 -0.10806959 -0.25599152 -0.05570408 -0.08529051 0.14852175 -0.09124788 0.0071644722 0.21280676 -0.018217765 -0.036540996 0.096700534 -0.14165446 -0.20217536 0.1303151 0.007857826 -0.0765785 -0.044257645 -0.13398446 -0.031551275 -0.07589138 -0.005613173 -0.19490038 0.2745181 -0.04993786 -0.088058464 0.06415982 -0.026520962 -0.14129177 0.07871164 0.03489375 -0.10427133 0.16890931 0.16149916 0.10266248 0.088187315 0.10430798 -0.09335882 0.16598853 -0.08830054 -0.11979906 0.04112813 0.10247029 -0.043569334 0.21548578 0.018817417 -0.17975065 -0.023342071 0.0065952274 -0.028543422 -0.2653983 0.034516677 0.20587555 0.106665626 -0.047579266 -0.11563937 0.22046196 -0.007650229 -0.007769714 0.055169355 0.08440236 0.14447689 0.15327442 0.510974 0.14540407 0.107871935 0.46157634 0.14943574 -0.081016056 0.16232392 0.078453556 -0.064287074 0.30316556 0.14693424 0.19185607 0.30367655 0.0060925568 0.06664399 0.27685696 0.059107933 0.19233595 0.2859021 0.14469324 0.078332886 0.20019966 -0.20164631 -0.11550342 0.1592641 -0.1713116 -0.09688973 0.26623976 -0.09032369 0.11352935 0.26377025 -0.07403279 -0.17214814 0.07899721 0.18276598 0.03909183 0.32002 0.09812556 0.03994729 0.2632648 0.14924441 -0.09161402 0.3147988 -0.046895467 -0.05390839 0.4707786 0.12921047 -0.11585449 0.2236537 0.042696223 -0.010234655 0.29490945 0.12715349 -0.14642835 0.28016645 0.16474089 -0.08841523 0.12822808 0.22828104 0.018905988 0.15022992 0.16243689 -0.12634505 0.20916735 0.1379676 -0.19538982 0.10873522 -0.031403787 -0.0013321596 0.17703098 0.18444034 -0.015008587 0.33742484 0.2749162 0.056648068 0.23436667 0.035067905 -0.089427896 0.14323296 -0.082921565 0.03576197 0.14273828 0.08569858 0.023405533 0.21869975 0.047949143 -0.25262442 0.15052451 0.023068052 -0.22685842 0.0540537 0.110963136 -0.0431935 0.13379242 0.12817208 -0.09140676 0.20179953 0.15776694 -0.046526097 -0.047711607 -0.11982223 -0.08790552 0.052467555 -0.0620538 0.06989336 -0.055664487 -0.15278968 -0.054137554 -0.109327026 0.014458282 -0.2413763 -0.0506479 -0.06697996 -0.117776364 -0.13419954 0.0022469698 -0.00408428 -0.024176981 -0.10012698 0.0062749144 0.022648865 -0.09008591 -0.048146278 -0.009561742 0.009708055 -0.110867895 -0.0077713067 -0.114171386 -0.14348319 0.11298203 0.05085867 -0.19200785 0.10575689 -0.08035768 -0.0025147693 -0.026048463 -0.015559651 -0.16688938 -0.09223008 0.049751393 -0.07286853 0.10855269 -0.1032922 0.01576659 0.15586846 0.11582577 -0.10438984 -0.021895388 0.0685544 -0.05208326 0.070422456 -0.017485952 -0.03385057 0.016253276 0.11436262 -0.20012863 0.111363694 -0.07030328 -0.047433775 0.0667178 -0.045834795 -0.19516268 -0.05916665 0.030325862 -0.09410331 0.03544535 -0.01614636 -0.022728035 0.05020479 0.11277009 -0.23775 0.08013287 -0.08952481 -0.043028478 0.039487116 -0.0022083118 -0.16108978 0.1962021 -0.0053881607 -0.18670507 0.09332505 0.10806518 0.05743783 0.01869961 0.029282872 -0.08808592 -0.07078313 -0.13023211 -0.028534606 0.1659033 0.112079225 -0.014554458 0.15950823 -0.121108726 -0.12168334 0.097364664 -0.27660304 0.03741317 0.11459656 0.009968201 -0.19193788 -0.16404271 -0.29997265 -0.15010983 -0.15391783 -0.041902404 -0.026916718 -0.11822436 0.017118465 -0.07901939 -0.06677554 -0.11383214 -0.124070026 -0.11465509 0.02960361 0.04005725 0.04822018 0.20111565 -0.101317674 -0.11365638 -0.05746198 -0.012983748 -0.183765 -0.005624982 -0.009616984 -0.0047157845 0.1770866 -0.11006622 -0.026794523 -0.08500768 0.0062582386 -0.07764748 -0.1422024 -0.09007753 -0.005783388 0.028349526 0.12423375 0.06150709 0.07609163 0.09031263 -0.011942214 -0.111378625 -0.1150129 -0.10077615 -0.022377098 0.009417718 0.028604984 0.06781933 0.05868571 -0.07624937 0.24577026 -0.123566285 0.00018475248 0.019620106 -0.03411266 -0.043406375 -0.036963344 -0.11261072 0.09329781 0.06272841 0.06479723 -0.08299812 -0.09624616 -0.10228316 0.020833464 -0.011592107 0.039118946 0.064943105 0.04544222 -0.10142357 0.10510879 -0.03060953 0.07735758 0.088637814 -0.07524013 -0.099859565 0.12461365 -0.22549337 0.09543361 -0.020677496 -0.19343139 0.052248206 0.1018291 -0.0063528963 0.10008197 0.20563076 0.15880214 0.10192325 -0.033723377 0.052835084 0.042227693 0.10220407 0.06467997 0.054251574 -0.005186206 0.05486885 -0.07850187 -0.09306677 0.18643363 -0.0010469616 0.0997379 0.1828436 -0.06029513 0.0061514326 -0.053467706 0.030845398 -0.08212701 0.013871388 -0.09781837 0.22159897 0.1672127 0.051717464 0.06531605 0.14567049 0.009554728 0.09092736 0.14046246 0.09828692 0.16332133 0.10737095 0.0036225948 -0.009524318 0.084400825 0.13807578 0.0168686 0.09068669 0.054170594 -0.046664517 0.2402242 0.0012873639 -0.040822264 0.23285957 0.12614973 0.22508663 0.110859096 0.14646228 0.110681124 0.09885232 0.027290212 0.0032134526 -0.015121284 0.006120587 0.114020266 0.010028612 0.0729187 0.17168373 0.11033896 0.028166406 0.03457576 0.19473556 -0.018439304 -0.013486254 0.14754808 0.12221881 0.041378204 0.0048024263 -0.023338852 -0.09935481 -0.042344246 -0.068230055 -0.093378805 0.11059279 0.08229792 -0.12223879 0.12462162 0.13717903 -0.014358116 -0.1468089 -0.061827727 -0.101312056 0.03428383 0.0172015 -0.12085473 0.09174795 0.06615955 -0.0184746 0.005847141 0.14308384 0.008738448 -0.07430473 -0.01717701 0.031020552 0.02385496 0.052389767 0.03271298 -0.11248073 0.03984169 0.096581124 -0.09158761 0.16792364 -0.023937771 0.16158068 -0.02319176 -0.08393253 0.1741583 0.037667442 -0.046558674 0.26747292 -0.22072345 -0.292514 -0.20801632 -0.041031744 0.23819852 -0.013502585 -0.04363103 -0.016538974 0.14758866 -0.016834756 -0.2683921 -0.2518007 -0.10505634 -0.10690382 -0.17463022 -0.07130591 -0.17723499 -0.021070905 -0.028764892 -0.11933383 0.004912576 0.12974106 -0.057628483 -0.034995716 -0.031675804 -0.024499811 0.15087679 -0.058648445 -0.059370685 0.09077153 -0.012522074 -0.10712695 0.0033186174 0.0629586 -0.03524923 -0.030864816 0.08557921 -0.06745296 0.046496045 -0.042396728 -0.17826791 0.015683375 0.068213955 -0.13587436 -0.14518383 0.010281379 0.0028755818 -0.032730967 0.019446546 0.045922205 -0.11320971 0.08534914 0.12435207 0.08645495 0.09392711 0.04061955 0.004461906 0.08970154 -0.01092903 0.05305525 -0.009930027 0.08442433 0.16320498 -0.0035867617 0.12614498 0.056013193 -0.07488937 -0.11060311 0.01864514 -0.08026752 -0.15378398 0.044846855 0.039009575 -0.020889958 -0.007296265 -0.021271354 -0.0114752855 -0.10696236 0.058089606 -0.016855521 -0.03765223 0.07364203 -0.16357608 0.023855647 -0.020526843 0.009971907 0.15435578 -0.05507241 -0.055797774 0.025434071 0.11469073 -0.060499653 0.045995854 0.06821146 -0.058239095 0.005614265 0.015623026 -0.0011875363 0.055197157 -1.2083418e-05 0.15891396 -0.0015853362 -0.0060948175 -0.031173324 0.041196328 0.0023694076 0.09306937 0.07949171 -0.0014131367 0.004422611 -0.08226926 -0.027931677 0.02148262 0.044479907 0.08186038 -0.018220041 0.07158161 0.15352412 0.097547814 0.030476872 0.021151885 0.22455508 0.20771107 0.082666986 0.05086899 0.27934164 0.004609519 0.29830572 0.1983284 0.13101882 0.16332114 0.1700257 0.023285618 0.09202175 0.1960087 -0.062014002 0.08963047 -0.13625497 0.010310926 0.24836805 -0.0058639217 0.088997476 0.22572674 -0.094073996 0.062210057 -0.059437916 0.029597186 -0.024757328 0.10732269 0.038238198 0.078248054 0.11249302 -0.1398486 0.09186354 0.09428917 0.05296702 0.03202648 0.11848379 -0.07292761 -0.0031927659 0.22308479 0.010612725 0.11920114 0.041248653 -0.040426712 0.08825817 0.09390424 -0.054366942 0.046059698 0.033532746 -0.21661736 0.04456411 0.21318895 -0.13091291 0.006793381 -0.014143787 -0.1490147 0.12974478 0.053336274 0.06636035 -0.017510757 0.08147177 -0.023874877 0.06422458 0.13832787 -0.14244576 0.10929085 0.15355064 -0.10989787 0.109437294 0.13807365 -0.16118413 -0.014032272 0.13698208 -0.105438836 -0.027450994 -0.045426928 -0.27291983 -0.042290416 0.08472706 -0.106174044 0.12969898 -0.12626567 0.06584845 0.064161964 0.14265895 0.061343014 -0.12099402 0.062216256 0.14472394 -0.0401614 0.3407023 0.2212432 -0.01192529 0.09596492 -0.4183255 -0.07382228 -0.020500967 0.11230887 -0.04695423 -0.03548074 0.018781474 0.0060743657 -0.08445402 0.3736517 0.0057999487 -0.08625927 0.41846907 -0.056832287 -0.09904242 0.44376078 -0.0633992 -0.2638875 0.20507066 -0.06622602 -0.22824776 0.18096042 -0.10110515 -0.10242298 0.16459838 -0.018568287 -0.06903501 0.27973565 0.017745594 -0.08421624 0.31497598 -0.11555104 0.059151925 0.093608305 -0.015030568 0.20478746 -0.07982558 -0.04370827 -0.010344613 -0.039147843 -0.14235666 0.007452002 0.19509979 -0.095501386 -0.012143121 0.24265014 -0.04827759 -0.015836993 0.24699678 -0.10893142 -0.007878677 0.11973192 -0.08369909 0.2307995 0.051272407 0.04141684 -0.08805718 0.036217984 -0.03065175 0.117007025 -0.103546426 -0.014038808 0.14848918 0.16001911 -0.029415311 0.03471602 0.010758926 0.027919026 0.17049335 -0.033869542 -0.053914934 0.15352954 0.035802267 -0.11647891 0.13012904 -0.33174026 -0.04458077 0.3263491 -0.20217253 -0.12652135 0.31044462 -0.099317595 -0.10970029 0.18978114 0.21043673 -0.08600032 0.37551877 0.033577498 -0.03205539 0.25783056 -0.1435915 0.010744984 0.23988135 -0.21077326 0.030139048 0.38417614 -0.11035025 0.021791903 0.26028067 0.061059587 -0.04514843 0.33278704 -0.21182857 0.05564019 0.451743 -0.12626313 -0.106652334 0.20373571 -0.002528811 -0.15873908 0.09544795 -0.110489085 0.06921871 0.18301085 -0.30720356 0.048190523 0.09850062 -0.07741965 -0.11666956 0.16242991 -0.19422649 0.058564067 -0.02671985 -0.12036971 -0.12786825 0.26451826 -0.07575772 -0.121029116 0.0059412313 0.0059440867 -0.07163513 0.24414574 -0.020388497 -0.001371449 0.20361419 -0.03708094 0.03429412 -0.12742345 0.021657333 -0.116304666 -0.10034862 -0.10946931 0.024329323 -0.13509504 -0.08431274 0.02093366 0.15581653 -0.009833856 0.0937051 -0.16261435 0.14108649 -0.11494638 -0.068089224 -0.11365816 0.027760472 0.042903554 0.065720744 -0.01406495 -0.050731722 -0.026635604 0.055340566 -0.06748876 0.08671961 0.10833592 -0.13552658 0.010707812 -0.07250743 0.048749015 0.06333265 0.02430627 -0.17211325 0.041515246 0.012999221 -0.22072662 0.22145632 0.00034984323 0.033263598 0.26018775 -0.02736548 0.09051726 0.21783942 -0.03324491 -0.020932278 -0.018449955 -0.020309981 0.022036735 0.015946874 -0.03681616 -0.10031186 0.083183534 -0.07533347 -0.093854874 0.1436718 -0.010708091 -0.11192015 0.07552107 -0.03647093 0.005839243 0.020972703 -0.0047372733 0.092170954 0.12889482 0.17508584 0.4240831 -0.7518555 -0.09049076 -0.43462992 -0.094739854 -0.16366765 -0.017823104 -0.013714944 -0.06662194 0.022859236 -0.016913604 -0.04107999 0.26081276 0.031112287 0.10599336 0.25242916 0.10339088 0.026672518 0.37371108 0.10051587 -0.026907155 0.26800677 -0.029964449 0.060958423 0.14684132 -0.045078885 -0.08368739 0.10793289 0.07058908 0.09374447 0.1291412 0.028190607 -0.043822248 0.13355447 0.18014042 -0.038712483 0.034114297 0.0803989 0.018768337 -0.032386627 0.031582434 0.037243232 -0.11019971 0.032461677 -0.052640837 -0.07505196 0.14586292 0.0005729324 0.021032164 0.10464828 0.045135424 -0.12826866 0.0669914 0.07645896 -0.19575416 0.09813519 0.080673605 -0.22495918 -0.011382387 0.027216602 -0.052863363 0.11724841 -0.004381514 -0.21794152 -0.10425867 0.057743646 -0.059677243 -0.073756695 0.025546096 -0.073791206 -0.05867345 -0.024970766 -0.13232073 -0.0034073244 0.03945942 -0.048479803 0.024129588 -0.098519936 0.05231511 -0.10795308 0.1001845 0.020624002 0.034171395 -0.015866773 0.18401967 0.17238763 -0.015701119 -0.11244038 0.15006691 0.110048994 0.10948802 0.13557853 0.14329965 -0.051510252 -0.03657419 0.052588295 0.012911874 0.12813973 -0.05440424 0.084830925 -0.083343334 0.021847095 0.17122078 0.068613365 0.04892922 -0.12131922 0.06741252 -0.12199264 0.08310986 0.16495574 -0.058582067 0.074488245 0.05171881 0.0299406 -0.020728601 0.05273947 0.010363803 -0.002177267 0.18195458 0.18024988 0.17395851 0.06958486 0.1389329 0.23661974 0.104706444 0.04364453 0.27329347 0.1656778 0.09031775 0.16119617 -0.018876756 0.017042609 0.044820827 -0.04733179 -0.060842473 0.16238207 0.11971612 -0.042495903 0.08715185 -0.12481024 0.011442458 0.12916382 0.12251704 0.0825055 0.13304497 0.054941032 -0.041745234 0.16534567 0.0074679805 0.023179792 0.12658411 0.045070812 0.0494152 0.21225981 0.055247236 0.017449824 0.2916218 0.108089454 0.14668639 0.20664793 0.06651092 0.14883998 0.20309389 0.035156243 0.05643435 0.19673596 0.037936937 -0.056862786 0.19070117 0.0056323283 0.04648658 0.14624777 0.016134342 0.18794912 0.09800185 -0.00071764353 0.011778367 0.14957431 0.09493274 0.05461701 0.13410749 0.120253116 0.04323803 -0.0033046578 0.22177103 0.009622881 0.28096247 0.16026534 0.085456215 0.34526303 0.07996895 0.110584244 0.06294488 -0.06653873 0.04426187 0.24258433 0.13695481 -0.0024444275 0.253196 0.06184795 0.008135951 0.1812278 0.1511588 -0.11021838 0.12002426 0.09198807 0.04867791 0.1998145 0.18439974 0.09968118 0.08487587 -0.45562723 -0.02213511 -0.04885783 0.0035916916 -0.15263523 -0.024648217 0.025956493 -0.15011308 -0.2294952 0.18847974 -0.10279174 -0.26835716 0.28432432 -0.015089695 -0.15569748 0.42672446 -0.105993606 -0.19688463 0.2297381 0.1095379 -0.23901303 0.20664547 0.06943321 -0.27942014 0.23208311 -0.012583092 -0.105280064 0.08482982 -0.0072046504 -0.20091309 0.1583928 0.048507623 -0.1516891 0.090808034 0.02957538 -0.10325879 -0.010439539 0.044163648 -0.2204143 0.11614889 -0.05621595 -0.06406247 0.2697241 0.04272901 -0.22874585 0.1523889 -0.029687421 -0.037404798 0.15109213 -0.024303026 -0.045261227 0.24238239 -0.14817059 0.13697231 0.039605834 -0.07969759 -0.28269073 0.02983728 -0.035567265 -0.21178985 -0.17593408 0.1518364 -0.014103705 0.13124746 -0.06720432 0.18544494 -0.037993766 0.10508649 0.084937766 -0.016658168 -0.06865521 0.12238344 -0.12417402 0.26234555 0.008727906 -0.20634659 0.19856606 0.022557339 -0.10247874 0.26041508 0.049247973 0.07168647 0.15177597 0.08252769 0.25538749 0.14807928 0.1795912 0.0050513386 0.09933841 0.10023022 -0.048079 0.14084771 0.13676934 -0.17094599 0.24028297 0.07055407 0.099405505 -0.05173824 0.22543494 -0.009177143 0.2480658 0.11677243 -0.059649106 0.15646932 0.33433107 -0.17902552 0.0059045106 0.05458581 -0.046948593 -0.14732483 0.051185478 -0.034549173 0.096173435 0.123352736 -0.13037017 0.042479962 0.027044678 -0.21958494 -0.049107037 0.08791518 -0.036193054 -0.14029443 0.08577835 0.063013546 -0.025436383 0.075338654 0.043057024 -0.039990984 0.049536023 -0.16676266 0.034086246 0.20659578 0.17664889 -0.043313652 0.15718552 -0.059704784 0.027813105 -0.14570065 0.060580987 0.20013972 -0.2424491 -0.0016251666 0.087000504 -0.028706385 -0.025844684 -0.03623604 -0.1818569 0.020196002 0.22881994 -0.39159703 -0.017839095 0.18153693 -0.2556291 -0.026322205 -0.12975258 0.028164169 -0.09440255 0.061380643 -0.162381 -0.06513345 0.12809367 -0.26010174 0.0026926715 0.24060023 -0.26227206 0.029733974 -0.100681774 -0.09793958 0.036672678 -0.03186896 -0.1614656 0.120357834 0.030616984 -0.40735394 0.23171417 -0.09608993 -0.15864633 0.059648536 0.07787631 -0.14547011 0.014628713 -0.14772047 0.083651915 0.0022612724 -0.063574865 -0.03388804 -0.0813551 -0.071185775 -0.05700979 0.032155536 -0.1426447 -0.21668613 0.065008454 0.08664365 -0.28587762 0.06321435 -0.0008968389 -0.15490966 -0.04797083 0.030096589 0.23032102 -0.07573245 0.17736208 0.32616973 -0.8474186 -0.06718722 -0.18043415 -0.09263666 0.0007520303 0.06538275 -0.14650963 -0.078117795 -0.0037418816 -0.007870929 0.07753319 0.18350469 -0.22208865 0.08896508 0.25107473 0.109803855 -0.040043253 0.34619793 0.1063031 0.039829645 0.17829247 -0.00813734 -0.048394743 0.1480325 0.027707 0.023089461 0.17154902 0.078382365 -0.052148253 0.17433576 -0.03112401 -0.015278987 0.2594105 0.0096514365 0.1290176 0.07728924 0.113228664 -0.01635527 0.01975465 -0.12059755 -0.018149784 -0.15429293 -0.0101742055 0.028676042 -0.1591007 -0.011285695 -0.102168076 -0.057551593 -0.030702341 -0.13034387 -0.12822361 0.047533125 -0.019182533 -0.24966183 -0.040828712 -0.06932084 -0.42818815 -0.015942292 -0.11801246 -0.10277505 0.120091915 0.1025397 -0.21410337 -0.25324762 0.06579096 -0.05336349 -0.16217993 -0.13100602 -0.16030392 0.029211365 -0.013742061 -0.12003303 -0.19675961 -0.057113037 -0.011820722 -0.08314786 -0.018456738 0.059952486 -0.13469413 -0.0672022 -0.097974606 -0.21649623 -0.21690166 0.07126316 0.12565324 -0.10571058 -0.1726662 -0.035066 -0.01289782 -0.03202364 -0.049805358 -0.17259607 -0.056086686 -0.088724375 -0.03488607 -0.045143582 -0.005435717 -0.2856974 0.085679054 -0.027837439 -0.20315509 0.20727782 -0.10667669 -0.18141289 -0.027876854 -0.02192744 -0.16153023 0.07225669 -0.07421848 -0.2129641 -0.015118516 0.03318952 -0.065707065 -0.07871249 0.0031964707 -0.0607024 -0.048948523 0.08379737 -0.10127197 0.11660434 0.031258836 -0.08691687 0.20887989 0.19133332 0.015620572 0.24628107 0.14859109 -0.1592294 0.101348035 -0.034134783 -0.08603843 0.1830551 0.08759085 -0.047963005 0.23004839 0.066591404 -0.21759717 0.15040103 0.037369095 0.01744782 0.25255558 -0.025110234 0.06224846 0.21684077 0.026988635 -0.17846425 0.20193258 0.05533915 0.022239111 0.25567952 0.123918265 0.031640477 0.114721335 0.05526284 0.18289964 0.24314062 0.16660088 -0.05264592 0.080692254 0.047213856 0.0156246135 0.2629054 0.006163905 -0.019164374 0.3424373 0.03268771 -0.046492293 0.28963324 0.003022771 -0.00923772 0.32184294 0.07769616 -0.0006777945 0.2031698 0.023782996 -0.044130523 0.17918025 0.20955487 -0.06358023 0.17984436 0.19878256 0.004485925 0.14310233 0.07641895 0.11617316 0.30708423 0.119124226 0.0393077 0.23148203 0.13198431 0.029914018 0.13080464 0.09335282 0.09284159 0.29284242 0.17528225 0.107016064 0.37906027 0.15932332 0.058677476 -0.000323928 0.15839826 -0.30518174 0.009973304 0.06808362 -0.64084285 0.10681981 0.041862607 -0.19822982 -0.026545696 -0.5330422 -0.0038745573 -0.26214656 0.039703835 0.04813769 -0.08826362 -0.0057397913 -0.13378392 -0.051829793 0.26759458 -0.449456 -0.053098194 0.47619468 -0.37603316 -0.015270594 0.47060385 -0.28075123 -0.20878309 0.25279132 -0.6003449 -0.19191015 0.27150542 -0.6531406 -0.17403877 0.1397072 -0.52451086 -0.01265758 0.28506044 -0.61805576 -0.023771238 0.25219074 -0.1656173 -0.09702604 0.28815344 -0.51358044 -0.1567882 0.12838084 -0.25718075 -0.16615699 0.21830933 -0.30843827 -0.15133168 0.10962718 -0.4124507 -0.08194817 0.04441741 -0.376956 -0.069156766 0.25755534 -0.20541719 -0.12597825 0.079865634 -0.08728627 -0.2009215 -0.06756683 -0.25752613 -0.11156137 0.06450063 -0.29413053 -0.039451145 -0.21015221 -0.28593087 -0.00721689 0.15529874 -0.180153 0.038082037 -0.0661812 0.011824818 0.007696998 -0.09463314 -0.13517034 -0.1586018 -0.05114012 -0.23684315 -0.14084548 -0.23363772 -0.03958671 -0.115651175 0.039176848 -0.14463781 -0.039951432 0.11251364 0.0066789687 0.0071620527 0.17711698 -0.0059910817 0.034640633 0.108776756 -0.0070396564 -0.09315123 -0.015205025 0.051697824 -0.118863165 -0.06369478 -0.1841196 -0.066887565 0.00026415914 -0.12773044 -0.011860399 -0.11084638 0.11969834 -0.17234427 -0.08935238 0.02934084 -0.11131821 -0.22697279 -0.23673959 -0.21373802 -0.12007481 -0.15439184 -0.103208534 -0.06215637 -0.30013627 -0.17023529 -0.20984662 -0.3388236 -0.2585426 -0.08149064 -0.28030083 -0.060447015 -0.17603981 -0.28032288 -0.14262614 -0.016581146 -0.42319566 -0.12868452 -0.18384415 -0.14617133 -0.13958482 -0.18879412 -0.19726384 -0.14338362 0.17014301 -0.078448325 -0.056033526 -0.06656028 -0.0666887 -0.17111026 0.08455733 0.116439104 -0.042120587 0.018030416 0.23532732 -0.20943551 -0.10242553 -0.05756141 -0.13708766 0.074118964 -0.06959335 -0.21688943 0.11251416 0.0877286 -0.20846319 0.028528662 -0.1607959 -0.089918405 -0.06342412 -0.0037311616 -0.024043491 0.017872943 -0.19274569 0.023817053 -0.01522594 -0.064767055 -0.09973449 0.07658744 -0.19681783 -0.10058352 -0.098018214 0.13937153 -0.052751627 0.1112859 -0.037658636 -0.16172035 0.1425993 0.14526248 -0.06761633 -0.030138817 -0.086233445 -0.22544578 0.018754352 -0.16547574 -0.072107725 0.070116885 -0.1003076 -0.2531123 -0.08582874 0.023123998 -0.124166116 -0.11618928 0.013478504 -0.20224695 0.07031802 0.17722343 -0.1679102 -0.08153697 -0.0088508995 -0.09327698 -0.1296716 -0.44812557 0.04115189 0.18565041 -0.31617317 0.21436991 -0.58422786 -0.137331 -0.05263109 0.05824391 -0.112351045 -0.08771331 -0.07340116 -0.060446907 0.03633464 0.03262992 -0.2157554 0.17609179 0.17506431 -0.12141317 -0.0127564585 0.35088417 -0.22615135 0.14664291 0.48728138 -0.090179294 -0.07734126 0.19848756 -0.11341188 0.11414532 0.19624186 -0.013685385 -0.09076197 0.2995103 0.020877069 -0.092367135 0.25876987 0.019527102 -0.0016058618 0.2977457 0.03922356 -0.11209568 0.033899985 -0.02299736 -0.012037825 0.0072271912 -0.09966339 0.06678139 0.101515494 -0.07787204 0.04440936 0.22313868 0.14713147 -0.062096063 0.060654957 0.040708672 -0.0044176774 0.095313735 -0.115628086 -0.05270312 0.057117436 -0.08711787 -0.11891938 0.13229638 -0.11694725 -0.00980305 0.11289559 -0.08425686 0.034514073 0.036536217 -0.0076887547 -0.012515131 -0.057982497 -0.09500008 0.04111014 0.008996449 -0.12055517 0.13009429 0.060984727 -0.19908921 -0.008735684 0.25870508 0.058213644 0.14463055 0.025010603 -0.09138156 0.10149536 0.11162684 0.098631494 0.07691102 0.06685443 -0.03994929 0.06521146 0.1924634 -0.052157484 0.0312252 0.12873955 0.04251973 0.16666675 0.1416114 -0.040710457 0.18297409 0.035996143 -0.19095403 0.20943676 0.018442808 -0.065956526 0.032034244 -0.01991719 -0.14570877 0.0753626 0.029870052 -0.10625684 0.089494266 0.06760121 -0.14585476 0.03579739 0.17948593 -0.107527755 0.13223244 0.01693611 0.026997574 0.24743593 0.015259631 0.0022761843 0.061743237 -0.0212423 0.10711215 -0.09092871 0.20540991 0.0108561115 -0.1095343 0.11259596 -0.031173749 0.0006964144 -0.03955317 -0.042031556 0.08053242 0.044599973 -0.055287704 0.060554493 0.1831126 -0.014943296 0.09444812 -0.010086532 0.004831961 0.14156 0.042897344 -0.061318792 0.08713824 0.0920088 0.07824242 0.03731107 0.14068614 0.07309284 0.03474421 0.14481878 0.019324755 0.049403027 0.0675959 -0.019704722 0.23413289 0.15895419 -0.03807905 0.08289572 0.09478547 0.14966425 0.11317304 0.1606244 0.021742005 0.052756574 0.09043867 0.11437758 0.02424899 0.12893192 -0.031776894 0.01172374 -0.02161223 0.22058168 0.27738425 0.14793216 0.30156925 0.2711322 0.24048328 0.106017336 0.10099505 0.17390674 0.24406573 0.13609669 0.2237434 0.19555107 0.06642227 0.031118391 0.2194427 0.13801742 0.083213516 0.12808305 0.2780423 0.11450664 0.13193093 0.20250651 0.16375181 0.22596155 0.22160947 0.1085454 0.011832412 0.034753483 0.14611857 0.030754069 -0.02168563 -0.0053155962 -0.40197393 -0.041830495 -0.019455193 -0.33039436 0.021738846 -0.027691767 0.022239432 0.06168904 -0.015968598 0.02562294 -0.07725159 -0.116871916 0.13107722 -0.12760898 0.03150761 0.07444514 0.023172123 0.0416153 0.02680718 0.023823904 0.059840247 -0.03533095 -0.1678546 -0.059710383 0.05676857 -0.13530785 0.04987862 -0.17930047 -0.121323355 -0.08706029 0.14167583 -0.08333139 -0.1804159 0.14902438 0.094881885 -0.02351713 0.22151229 0.1169604 -0.08337008 -0.01272855 0.10814269 0.071812965 0.042880952 0.17112038 0.041111913 0.21604952 0.0801123 0.13816941 0.086401634 -0.09944116 -0.121337906 0.14221424 -0.13797289 0.046857856 0.26678178 0.09207519 -0.05363825 0.13779613 0.105685204 0.10503254 0.019457871 -0.14453396 0.08198272 0.16401094 0.011293732 -0.043476347 -0.15306452 0.11668153 0.002598197 -0.1384759 0.07001465 0.11684061 -0.10918516 -0.059975024 0.19519341 -0.025168413 -0.046588965 0.1924858 0.144332 -0.053055502 0.18451369 0.04116562 -0.08014757 0.2223891 0.014813089 0.15309595 0.16208956 -0.19225244 -0.042906437 0.12084045 -0.0778247 0.113939844 0.09960025 -0.071381964 0.15805805 0.124016605 0.0059972885 0.08647577 0.13464506 -0.1668076 -0.058849607 0.17337923 -0.052052278 0.02712637 0.02755081 0.032475986 -0.02716869 0.10713303 0.040670462 -0.042656776 0.07150058 0.056657597 0.17695747 0.12030875 0.042233527 0.03416228 -0.040748123 0.12718658 -0.06548028 0.12840383 -0.0184335 -0.18890303 0.106043644 -0.08652937 0.045892667 0.03570846 0.09998607 0.08580991 -0.02579697 -0.13951309 -0.027402153 0.14843544 0.022470422 -0.032415938 0.09185264 0.05475718 0.07871658 0.07665316 -0.040121842 0.20091662 0.10690271 -0.084113285 -0.027785005 -0.033028126 -0.20755647 0.14537677 -0.020740239 0.06347215 0.16538759 0.009826787 0.0034984055 0.046442334 0.09170539 -0.13777348 0.2599028 0.0260679 0.12299992 0.18128724 0.13774914 0.14865363 0.09815899 0.26038986 0.04328731 0.107480034 -0.008423024 -0.036017295 0.15875171 -0.007910603 0.15554418 0.08377172 0.009668495 -0.10772382 0.042935368 0.010808785 0.03817276 0.15908451 0.08986247 0.07677742 0.12299657 0.04934979 -0.02477446 0.17245165 -0.056437157 0.22404678 -0.059916306 0.09466389 0.0051264516 0.20780362 0.18006779 -0.031495217 0.08589328 0.057888743 -0.0051320293 0.21544854 0.06615519 -0.08569968 0.20677881 0.005270882 -0.17019863 0.1480561 0.11588432 -0.046923526 0.14455675 0.1731598 -0.03478702 -0.035704844 0.040201217 0.26471442 -0.08455567 0.16590624 0.08623496 0.010664074 0.017649222 0.007305472 -0.029579837 0.163398 0.048222795 -0.24499309 0.11683689 -0.06341081 -0.09698766 -0.1158001 -0.028704034 -0.2239234 -0.04231728 -0.025324108 -0.20148586 -0.070374615 -0.008757863 -0.2173578 -0.08229995 0.027278556 -0.15420243 0.10845246 0.07029538 -0.17622423 -0.07114961 0.23264539 -0.033400875 0.13172632 0.010204907 -0.10955718 -0.016772721 0.06433324 -0.03130501 -0.010558873 -0.01351666 -0.1813838 -0.003414375 0.14309104 -0.19313858 -0.073293515 0.13997792 -0.16441207 0.07264452 0.008007285 -0.22991571 -0.08022658 -0.05927749 -0.15481944 0.05593019 -0.25216782 -0.2682265 0.008515009 -0.13708092 -0.18434188 -0.040165007 0.06604256 -0.12769365 0.10179441 -0.019379402 -0.2229412 -0.062116463 0.106606536 -0.21172519 -0.025305072 -0.037718173 -0.17729264 -0.018309252 -0.10664502 -0.10680354 0.14553148 0.17127202 -0.08212099 0.15439305 0.029650513 -0.112548314 -0.042011682 -0.038200226 -0.14985165 0.121823296 0.11327528 -0.046230797 0.087201536 -0.04888937 0.07474715 0.0022678406 0.109070316 -0.117004305 -0.07220547 0.18195951 -0.02539346 -0.051447872 -0.034012165 0.0449772 -0.046734907 0.18173623 0.18057142 0.02138677 0.061049927 -0.050200872 0.19353467 0.15071492 0.044211466 0.060411677 -0.027515564 -0.070811495 0.1267627 -0.03300724 -0.15479982 0.06164281 0.06185737 0.05856451 0.07146351 0.054038107 0.103423044 0.031431064 0.22839446 0.061887644 0.16392182 0.19822033 -0.0067219795 0.043319106 0.11618676 0.042641614 0.16485168 0.0016411981 -0.18981002 0.048111804 0.37475875 -0.0033600496 0.08253228 0.28309494 -0.10841665 0.09612267 0.1893634 -0.04855594 0.118045785 0.028810604 0.039529566 0.03727851 0.22352539 0.17596352 0.06904904 0.15962091 0.11879709 0.014073076 0.1200151 0.0332144 0.12243301 0.06866455 0.05926591 0.11331193 0.10407802 -0.0986662 0.16297075 0.042351782 -0.012500437 0.009000618 0.2387674 -0.08453876 0.059969153 0.19098373 0.019668266 0.116308466 0.0068531446 -0.06914911 0.07112617 0.2027596 0.065367535 0.036155663 0.14792743 -0.1006623 -0.038447563 0.083654955 -0.05386285 -0.069104165 0.15690628 -0.08797521 0.09947415 0.025638796 -0.15515871 0.10503816 0.27722666 -0.11465727 0.03877792 0.1476581 -0.08464276 0.1109226 0.3301013 -0.082992524 0.047739327 0.14087112 0.16445222 0.105881765 0.114803 0.063769124 -0.056944083 0.08927426 0.15212896 0.022398898 -0.09379608 -0.036051296 -0.05123321 0.08963589 -0.006303456 -0.22359994 -0.039595395 -0.11405809 -0.39645478 0.026160164 -0.008092436 0.06609098 0.1429326 -0.14166972 -0.094343215 0.18127124 -0.24084146 0.107577205 0.17421095 0.06338375 0.09690388 0.28146133 0.13279225 0.062831715 0.27887228 -0.046305846 0.109687865 0.07054293 0.059562765 0.017021287 0.09808019 -0.0977033 0.025815997 0.07058032 -0.03923373 -0.08214387 0.16385818 -0.13737099 0.15703951 0.21254827 -0.0987968 0.19457442 0.012416118 -0.14222772 0.1330892 0.1094072 -0.15756261 0.23215601 0.0750891 -0.15008572 0.004237322 0.22923142 0.013280073 -0.08071706 0.05828084 -0.06908903 0.16256917 -0.05698433 0.037712142 0.19831647 0.065365665 -0.13047859 0.19139248 -0.0140749505 -0.18232544 0.20635542 0.13777156 0.10292428 0.057364468 -0.06285417 -0.04677325 0.10010905 -0.028301436 -0.12394624 -0.06029729 0.008493058 -0.100715585 0.059187405 0.2574385 -0.14965636 -0.03982105 0.15508713 0.06733427 -0.0629743 -0.06766022 0.028550508 0.11277182 0.038449947 0.14033969 0.103795394 -0.16964711 0.035271734 -0.010246266 0.08129114 0.1839867 -0.0034487327 -0.018396633 0.033002038 -0.027279794 0.075414695 0.062671706 0.06716493 -0.23453055 -0.021520516 0.23241073 0.061842404 0.0951686 0.09303634 0.20521998 0.05746697 0.07939569 -0.023414599 0.0040189987 0.13173462 -0.011021803 0.27017522 0.007000297 0.0916696 0.13590126 0.13665497 0.07990155 0.20749134 0.052335206 0.09860406 0.19490461 0.1589245 -0.09418576 0.31528077 0.017255956 -0.0561864 0.493109 0.21050537 -0.2543889 0.4378829 0.17783089 -0.062257566 0.24128401 0.16735432 -0.17179248 0.20432752 -0.003086995 0.059834793 0.1237769 0.030188542 0.0510344 0.07751497 -0.038297985 0.057359353 0.16151431 0.10886909 -0.017576879 0.055109214 0.011214415 0.2289734 0.010291447 0.07696189 -0.04880372 0.28072187 0.21015486 -0.05169467 0.12218249 0.008804683 0.006216154 0.20034261 0.07235805 0.009820457 0.14090832 0.16024117 -0.10924829 0.1411126 -0.020298468 0.0064617256 0.067171834 0.08862589 -0.24481994 -0.059964687 0.1321845 -0.19313419 0.11478109 0.1588368 -0.14333524 0.13920191 0.15620439 0.0006090744 -0.01563534 0.08240617 0.17626055 0.059315003 0.19116236 -0.15308067 -0.0042784875 0.24468146 -0.08309814 -0.0552544 0.035243955 0.3344739 0.10369069 0.09294651 0.08031194 0.06983255 0.0540358 -0.06962434 0.056482475 0.052105553 -0.08280656 0.3433326 0.038514182 -0.0552581 -0.2216485 -0.30660224 -0.01418049 -0.014075253 -0.21289325 0.1296454 0.02597637 -0.21578808 0.06142455 0.013242994 -0.02202237 -0.06550765 -0.04817116 0.10557449 -0.25287473 0.10441115 -0.033600654 -0.22002307 -0.05163986 -0.06448479 -0.18216187 0.033072956 -0.12589757 -0.17366 -0.007951806 -0.07745265 -0.25134525 0.016822744 -0.05475013 -0.21112311 -0.13732289 -0.077263646 -0.104751915 -0.10444769 -0.15682165 -0.11599319 -0.20029174 -0.047045395 -0.09561579 -0.07665434 -0.05348409 0.03424576 -0.12856047 0.017585965 -0.09299236 -0.057200797 -0.12175141 -0.025281701 0.048408005 -0.11708363 -0.11930317 -0.23530656 -0.024129711 -0.101155415 -0.22023839 -0.091945946 -0.0651904 -0.06623249 0.046330493 -0.10140242 -0.15636405 -0.02702472 0.0015032478 -0.029622363 -0.11895635 -0.015658256 0.015544396 0.05098043 0.0901296 -0.15261534 -0.16552857 -0.034715854 0.022109566 -0.006071946 0.047276367 -0.025788726 -0.13243279 -0.012162584 -0.01219793 -0.04495072 0.02097725 -0.08047254 -0.10220047 -0.1642739 -0.065228075 -0.061255615 0.09384464 -0.13223033 -0.09671209 -0.10649272 0.09199961 -0.040192243 -0.08141422 -0.10965052 -0.1247091 0.16617723 -0.1532089 -0.10060742 0.03411337 -0.064459465 -0.10377809 0.09280018 0.08115556 -0.029107576 -0.011105035 0.03517588 -0.107228376 0.098046586 -0.15378803 -0.01809866 0.16641295 -0.13610302 -0.16542889 0.19881716 -0.13302605 0.0036594104 0.0945101 0.00714669 -0.104229935 0.03159003 -0.09879681 -0.020389773 0.03296842 -0.050383627 -0.056763567 0.087591186 -0.009661277 -0.0621444 0.107081756 0.12220692 0.020905474 0.22871108 -0.050627112 0.096268095 0.23036633 0.055371523 -0.1029477 0.1505149 -0.0052651092 0.019931884 0.2020698 0.016457874 -0.07751318 0.07839237 -0.09613922 0.02009664 0.23760289 0.11818956 -0.064684086 -0.020023007 -0.09796629 -0.11234911 0.2110527 0.12900943 0.012214644 0.009675656 0.065922245 0.04358093 0.14073253 0.05225776 -0.23619205 0.10284534 -0.019216029 -0.16331454 0.023271028 0.119642556 -0.0071619055 0.057709467 0.06680454 -0.14149441 -0.037412304 0.05159931 -0.20320813 0.17797002 -0.09054594 0.036100082 0.10074264 -0.084144175 -0.22493136 0.15176763 0.00947054 -0.103801884 -0.033085894 -0.24145491 -0.06540717 -0.024848664 -0.24108712 -0.24941888 0.106963426 -0.2305963 -0.0926737 0.0054842504 -0.116363615 -0.10100562 0.15154049 -0.17610052 -0.06588628 0.1389307 0.067228004 0.026891477 -0.00074346655 -0.07122529 -0.14343049 0.016993307 0.11180214 -0.11403024 -0.14213292 0.06294227 -0.029966567 0.0547322 -0.15052173 -0.07633892 0.06402042 -0.08523344 0.015291931 -0.24263805 -0.09597734 -0.051811256 -0.17864458 -0.1152367 -0.09978113 -0.10558006 0.00892945 -0.0861682 -0.13631417 -0.07506392 0.08529333 -0.22468705 -0.025684867 0.037051175 -0.086046875 -0.07735499 0.16841386 -0.01910274 -0.02514879 -0.065814346 -0.18774462 -0.033979077 -0.059017297 0.008497361 -0.15331413 -0.18058348 -0.0015334721 -0.15433784 -0.012287496 0.028118376 -0.016397538 -0.13889512 -0.051192693 0.018608605 0.011637338 0.099107236 -0.07890075 0.15772872 0.008014757 -0.06280632 -0.038254213 -0.100494385 0.00519431 0.023594102 0.026451075 -0.027247505 -0.011046103 -0.07325094 -0.114936806 0.025570111 0.064529136 -0.01147893 0.119244926 -0.056334384 0.04079543 -0.10569792 -0.114964716 -0.020363478 -0.015509216 0.0321405 0.0229807 0.036334854 0.09354286 -0.09503189 0.06586622 0.046200506 0.043339983 0.10516199 -0.044879753 -0.047591794 0.06180078 -0.03486196 -0.04011634 0.12380787 0.012620282 -0.16433176 -0.055712678 0.11878011 0.1020322 0.11248738 -0.0656921 -0.15955074 0.05551091 -0.022665557 -0.11783157 0.0046455134 0.12108887 -0.17006981 0.025865 0.13383982 0.03153969 0.03587708 0.23254412 -0.15344808 0.012762501 0.06994084 -0.081980176 -0.033120055 0.04182382 -0.06067784 -0.11278597 0.16029528 -0.18354069 0.0701338 0.026564065 -0.11771634 -0.058447346 0.20956609 -0.107628286 0.0011950604 -0.0013529819 -0.10390595 0.12605561 0.100805365 -0.0726228 -0.07226203 0.11799544 -0.06778813 0.05132616 0.1364657 -0.008375976 0.10229647 0.15086876 0.02598473 0.030886766 0.011159288 -0.083612055 0.07524763 -0.10756456 -0.12433701 -0.030307129 -0.0046576187 -0.1876957 0.0051784394 0.020575374 -0.18818194 0.06162758 -0.07200102 0.015371045 0.11786888 -0.015156135 0.025447382 0.01008874 -0.106019825 -0.047073692 0.021806184 -0.0028519689 -0.045798488 0.12203804 0.14140117 -0.18077469 0.05287234 -0.06357271 -0.013358997 -0.06384321 0.18520962 -0.0100244 0.06408092 0.08744646 -0.13446261 -0.012751864 0.06529405 0.045673057 -0.13016853 0.086340405 -0.100940354 0.03960221 0.037541557 -0.034616333 -0.08649575 0.006741074 -0.05066756 -0.17202935 0.08805796 -0.12030239 -0.047193214 0.030182825 0.063789494 -0.041907962 0.076253146 -0.016443595 -0.08032029 0.009841604 -0.07665872 0.06567052 0.14472704 -0.005831136 -0.096865706 -0.019550592 -0.105425686 -0.013363867 -0.086235784 -0.13732655 0.06974074 0.05501795 -0.028077627 0.12650737 -0.08626709 -0.11581635 -0.0096157 0.052052435 -0.00018226141 -0.10281815 0.031959254 -0.1859163 -0.118993044 -0.16663985 0.054293774 0.08936874 -0.13205767 -0.04100362 -0.10795402 0.044349566 -0.16376016 0.0039757523 0.11394417 -0.036539316 -0.15978053 0.05600161 -0.02253718 -0.049201403 -0.07250442 0.028066002 0.06666253 0.10678416 0.007839799 0.056020904 -0.053176537 0.12602663 0.008372941 0.14302428 0.09072633 -0.08760257 -0.05033391 -0.10346534 0.028081672 0.17527667 -0.09372273 0.0032644062 0.03815009 0.11697876 -0.041292332 0.077025205 0.011619553 -0.0030816328 0.13612309 -0.013133307 -0.053265866 0.08003864 -0.058938652 0.05766488 0.1156515 -0.10175689 -0.06357462 0.050012086 -0.08608093 0.0629953 0.050883032 0.0023946867 -0.15160877 0.0010732432 0.04655472 -0.04422226 0.10309285 -0.048717357 0.063946486 -0.0045874314 -0.026743049 -0.022563891 -0.05728853 -0.113419 0.065596335 0.10164025 0.07178874 0.0031091084 0.115418814 0.041277267 -0.09165946 0.0015471429 0.025668515 -0.014494414 0.13817243 0.092400216 0.08299735 0.1403792 -0.051183328 0.0850919 -0.020505255 0.09191105 0.07997767 -0.06562738 0.098588645 0.040762298 0.05971667 0.0152772665 -0.09758199 0.022281079 0.08451397 0.07687465 -0.052437562 0.10024173 0.035886772 -4.253304e-06 0.0847574 0.1624913 0.007590671 0.12041591 0.09775093 0.13390791 -0.044979356 -0.008345195 0.018238021 -0.025362868 0.069540694 0.08507234 -0.019743137 0.12543382 0.0618548 -0.021985404 0.09770808 0.10341899 0.021852858 0.070014715 -0.07471782 -0.055675898 -0.008489623 0.05386227 -0.05804117 0.0067231487 0.017286532 0.012814659 0.15666969 0.08269596 0.024551513 0.14664254 0.15495312 0.095448285 0.10617372 -0.028833326 0.06691911 0.013431653 0.12142563 -0.013642666 0.16140822 -0.027740298 0.017393453 0.18499877 0.016250033 0.041209575 -0.017974786 -0.037836216 0.078811474 0.070119545 -0.045180183 0.032135468 0.16418263 0.007928939 0.10971091 0.042663284 0.06915444 0.08746352 0.14328195 -0.030433878 0.08506562 0.010218534 -0.015503021 0.028387068 0.020878691 0.0093101 0.1153284 0.11379547 0.074377164 -0.062281255 0.13264371 -0.051429823 -0.07796417 -0.0063473214 0.03583219 -0.069287926 0.028107673 -0.019646069 0.04735616 0.03213373 0.133742 0.029935198 -0.120217234 0.019651374 0.022761725 0.13179626 0.1010068 0.09083516 0.0667028 0.06678269 0.11129542 0.01789996 0.1354404 0.042080853 0.07957978 -0.04877045 0.13069062 0.035316378 0.07890433 -0.072171204 0.04629886 -0.085303344 0.027961833 -0.3829154 -0.7557408 -0.2199385 0.1686424 0.06561388 -0.030183889 -0.11473414 0.017390808 -0.024456117 0.12768945 -0.06417993 -0.061314277 0.04570085 0.07525132 -0.08535654 0.07670418 0.00588038 0.09176421 0.18649076 0.118898086 0.24516973 0.02683084 0.16220129 0.009126925 0.04292713 0.07785788 0.25908726 0.15129927 0.06476894 0.12656304 -0.039734047 0.13322248 0.15333094 -0.06591997 0.049688384 0.13939676 0.09926893 -0.0071941772 -0.020806702 0.07151026 -0.080305725 0.41705197 0.21922399 -0.06324066 0.26412514 0.16478913 0.029016031 0.30138755 0.17846835 0.10478678 0.25438324 0.0041403985 0.06078724 0.1725959 0.2533715 0.17820747 0.40674683 0.22662589 0.13219494 0.15768154 0.21229924 0.17872946 0.32654443 0.1963428 0.0799423 0.2337414 0.15307866 -0.098970205 0.47099108 0.06307655 0.01975868 0.31519163 0.018183114 0.06359394 0.11741338 0.1473874 -0.014090775 -0.040450048 0.16539294 0.041681804 0.029905157 0.16410652 -0.080312796 0.078782186 0.041564837 -0.039513208 0.38320345 0.06717752 -0.039438747 0.03114739 0.037992515 0.12446641 0.1384067 0.006020956 0.0053975796 0.09360432 0.06028401 -0.14622131 0.045203436 0.06480067 -0.08116876 0.24911512 0.18841048 0.1665137 0.047988262 0.25315982 -0.17150104 0.0018072128 0.09781162 -0.15650931 -0.12812267 0.3199013 -0.09453397 0.12693919 0.10627294 -0.22480874 0.37811437 0.16951436 -0.009510943 0.58869594 0.13305235 -0.28110924 0.619949 0.048183553 -0.03773962 0.773138 0.085212804 0.00905731 0.59793305 -0.05777153 -0.21238658 0.4299207 -0.044247635 0.015226586 0.31925407 -0.07036091 -0.06815915 0.18363786 -0.044400845 -0.13711238 0.12374693 -0.14783193 -0.08007633 -0.15696743 -0.1165341 0.006591668 0.045867223 0.05040394 -0.22992054 -0.2735943 0.023476776 -0.18942814 -0.09362033 0.025505925 -0.026785104 -0.017221222 0.059884876 0.039644517 -0.28312486 -0.044621453 -0.053259093 -0.4797917 -0.10668966 -0.05065118 0.039423924 -0.07403871 0.02308142 0.112148754 0.026787955 0.039827526 -0.014923986 -0.0953759 0.15799747 -0.15374704 0.12042173 0.12523326 -0.1287883 0.04813122 0.2286964 -0.21844189 0.03387338 0.010743247 -0.20724556 -0.020529035 0.22932857 -0.32735667 0.03330096 0.2502889 -0.2249604 0.12629114 0.09291044 -0.004616182 0.23465806 0.13674963 -0.45854798 0.2306872 0.23144992 -0.3540335 0.19529702 0.20976612 -0.33818585 0.20985274 0.22820717 -0.4029306 0.12876903 0.029593406 -0.13052464 -0.1509704 -0.041717313 0.026222907 0.2115922 0.1290168 -0.044881977 -0.083699785 0.065620005 0.041573886 -0.0460584 -0.025200693 -0.023791118 0.06098 0.171495 0.3108974 -0.050287865 0.12081061 0.13949409 0.019152304 0.025330054 -0.07127154 -0.0028546033 0.16503233 -0.0054246853 0.07473517 -0.017035153 0.21670257 0.1331439 -0.04847911 -0.074462585 0.0904076 0.09872426 -0.11630182 0.0011591477 -0.062924564 -0.13588019 0.17669868 0.22549652 -0.06461088 0.021095444 0.13280734 -0.122843236 -0.111523286 0.30830574 0.12090863 0.0975541 0.28287512 0.056097236 0.039710738 0.22037706 0.007865762 0.0996365 0.10070774 -0.19149566 0.11039967 0.16838545 0.051039997 -0.08063748 0.2808871 0.0060571353 0.1217678 0.3503286 0.0053138104 -0.101426825 0.42151272 0.22449781 0.031948466 0.14588036 0.019488847 -0.05796221 0.31220242 0.050083004 -0.042227656 0.30851865 0.18988675 -0.02897748 0.08616996 -0.039550655 -0.044876385 0.3727698 -0.064236775 0.0364337 0.27565092 -0.025990207 -0.013580584 0.021361355 -0.039339524 -0.16526161 0.25058973 -0.15792416 -0.043897506 0.14043152 0.031818762 -0.06534748 0.23911323 -0.03929964 -0.08590119 0.1351469 0.04840488 -0.02804883 0.17092282 -0.014035876 -0.15394877 -0.04326933 0.018534308 -0.09668572 0.18510911 -0.009347 -0.1683867 0.16197899 0.10835965 -0.012543129 0.1310073 0.060143974 -0.047996726 0.11457075 0.16434228 -0.13346046 0.15982716 0.12114374 -0.105632134 0.10289393 -0.12056898 -0.09616438 0.12709516 -0.03981862 0.0050732703 -0.082968265 -0.04031558 0.004441425 0.02746747 -0.03209494 -0.04540974 -0.0089175515 -0.051057942 -0.03461507 -0.115846366 -0.071771346 -0.15809442 0.07620912 -0.044957705 -0.27620676 0.08250682 -0.17020078 -0.15424395 0.10006673 -0.080708206 0.13723692 0.21244618 -0.21123907 -0.059012886 0.11179741 -0.087635264 -0.15903951 0.11077218 0.0016950886 -0.024044076 -0.015210169 -0.21319827 -0.14434512 -0.0891852 -0.18120623 -0.072422855 0.08653213 -0.14339335 -0.056968857 -0.069051996 -0.14659528 -0.011289967 -0.1297612 -0.05479156 -0.12062759 -0.04342419 0.059485402 0.10120643 0.12563556 -0.14161533 -0.081387006 0.025301011 -0.17029688 -0.12371304 0.0831916 -0.17642845 -0.14742506 0.13861857 -0.24964562 -0.19221179 0.2902405 -0.13350233 -0.0014189142 0.16042812 -0.20716248 -0.17747568 0.014478851 -0.067662604 -0.10044411 -0.00869434 -0.15943378 -0.09166178 0.10688799 -0.104219094 -0.18095973 0.051001213 -0.16028719 -0.10507946 -0.13575202 -0.03973573 -0.09399417 -0.16575694 -0.32121432 0.18900786 0.14318733 -0.1274409 -0.15043485 -0.14861491 0.2212469 0.34395728 -0.044316094 -0.018087557 0.0014903584 -0.034981158 0.11916611 0.12655883 -0.023403047 0.19501732 0.2322162 -0.014795016 0.28805628 0.2801722 0.14650209 -0.049876515 0.10601099 0.0068005426 0.18151571 0.2896622 0.03571172 0.08072652 0.11723513 0.07208415 0.036562722 0.14898215 0.07611782 0.2610862 0.22552451 0.19320118 0.009266268 0.20677266 0.059025005 0.26553288 0.2545317 -0.12442384 0.18819085 0.3195748 -0.09656643 0.21589059 0.15941522 0.042914245 0.25415868 0.05197519 0.01952778 0.11625567 0.055253506 -0.036835 0.18352664 0.01879319 -0.09743428 0.08185818 0.22373536 0.07343183 0.10610299 0.048968565 -0.11058651 0.14464413 0.12911598 0.081347585 0.0026104045 0.01945902 0.16955702 0.04706866 0.0123309195 -0.09151033 -0.21934593 0.01833081 0.04231071 0.055225123 0.10355693 0.0039185104 -0.042839766 0.055781014 0.10865147 -0.14935817 0.15926316 -0.104857676 0.2435014 0.100289986 -0.0703264 -0.10091642 0.10560292 -0.084991224 -0.15779553 0.11815303 -0.1433272 -0.18326938 0.113806844 -0.18105961 0.01579236 0.16039154 -0.040403493 -0.108657606 0.01098388 -0.067303956 -0.19495884 0.114672065 0.1299807 0.043259352 0.1575591 0.048697416 0.047808964 0.2095669 -0.038301416 -0.041650865 0.18098451 -0.042114858 -0.21407905 0.17183441 0.058238324 0.18823552 0.077104464 -0.040641528 0.15165925 0.110487215 0.019518945 0.08626001 0.16185433 0.009182979 0.027832218 0.14937459 0.009989623 0.14754668 0.01842403 0.11274095 -0.31794596 0.15226443 0.047729656 -0.08019856 0.042929545 -0.1271254 0.035327185 0.1595885 -0.044609264 0.054863684 0.09332263 -0.07881709 -0.13138558 0.09134238 -0.097330645 -0.25464043 0.16390842 -0.011939938 -0.38274664 0.17583637 0.08374679 -0.40316978 0.036443744 0.03277594 -0.06362829 0.048627578 0.050827134 -0.03628261 0.08892196 -0.010726757 0.13986485 0.15596664 -0.04749856 0.09283454 0.08272637 0.009575342 0.019294018 -0.048777644 0.09535034 -0.12939698 0.13028742 -0.14599484 -0.057292998 -0.07228661 0.068892404 0.12926811 0.054960568 0.09197587 -0.25442842 -0.037189145 0.020223362 -0.025000228 -0.0046272906 0.24440128 -0.4258078 0.14997856 0.028043967 -0.17895 0.16493168 -0.024776613 -0.17356002 0.19700214 0.025135327 -0.1232624 0.21727836 0.1150101 -0.056107618 0.23828165 0.030885335 -0.23770209 0.15583788 0.08198029 -0.07532053 -0.008986467 -0.104960345 -0.1835111 0.06859309 -0.016965874 -0.076344706 0.15651566 -0.06315554 0.19484209 0.085689515 -0.2367877 0.014794097 -0.016310567 0.02464763 0.22047043 0.05308812 0.17995052 0.2493736 -0.001303417 0.00026743015 0.18341775 -0.06817235 0.07705998 0.04695552 0.118717335 -0.03058038 0.1495751 0.014997553 0.05593288 0.064882934 -0.036372673 0.06300425 -0.03941279 -0.06318414 0.0923331 -0.08463498 0.05108386 0.019464957 -0.05506234 -0.05222824 0.001706507 0.09217158 -0.17072217 0.04235865 0.089644715 -0.11873156 0.0008418474 0.13294144 -0.17496595 0.1409775 -0.07265766 -0.016521892 0.024115544 -0.14516789 -0.11180095 0.090653256 -0.2118382 -0.05845134 -0.11855375 -0.1955731 0.07956535 0.10258174 -0.052795686 0.04123116 -0.010614012 0.07197209 -0.12694709 -0.10574561 0.018976096 -0.23605384 0.20991077 -0.046012342 -0.16430472 0.16710131 -0.07025501 -0.107293874 0.22713238 -0.0019686762 0.02850156 -0.038109716 -0.073590204 -0.1668751 0.10597582 -0.067869574 -0.07885229 0.18770656 -0.12140506 -0.09998175 -0.006071732 -0.020243874 -0.07099847 0.11974408 0.03327203 -0.24406555 0.18091832 0.026252057 0.025165685 0.11273211 0.0790551 -0.09958132 0.09565711 0.05534125 0.07005264 0.10661232 0.07360001 -0.10036059 0.0957051 0.037713062 -0.096804366 0.16768157 0.14330898 -0.07548552 0.077168375 0.036499657 -0.0072301333 0.06365097 0.046116903 -0.13857469 -0.030706689 0.13101646 -0.11028111 0.1376601 0.0075754025 -0.057052795 0.16607894 0.07162449 0.10758319 0.19264868 0.0032419083 0.098268665 0.031397555 -0.011491463 0.059186228 0.18767199 0.21905787 0.025599463 0.20445089 0.11435021 -0.033019453 0.041570593 0.1063834 -0.16017638 0.18650183 0.109479755 -0.08719415 0.17339565 -0.02352298 0.00632108 0.06754181 -0.06865192 -0.11087404 0.078249045 0.001554585 -0.117714144 0.12985188 0.017251585 0.04884878 0.11409791 -0.042139366 -0.0103585115 0.13913023 0.05269313 -0.06227408 0.14866869 0.08154402 0.057932287 0.2126836 -0.090575285 -0.11058269 0.21824738 -0.11696145 0.009257402 0.073712245 0.1114661 0.07002967 0.18339604 -0.11077019 -0.082653895 0.16426548 -0.08695072 -0.12538025 0.12447516 0.013510213 -0.14566815 0.11572049 -0.1165089 -0.12953943 0.09809993 -0.105951086 -0.0051033404 0.07003954 -0.03150213 -0.08550987 0.088726096 0.039499927 -0.14537972 0.1707248 -0.097184315 0.042229354 0.12783499 -0.05212646 -0.068804525 0.1733112 -0.10446046 -0.0680451 -0.15784486 0.016570326 -0.17606589 0.1471633 0.19280542 0.12946886 -0.23513664 -0.07599094 -0.2158274 0.00890772 0.105734445 0.053178728 -0.039879866 -0.027543748 0.030451588 0.07249099 0.023649516 -0.051040106 0.19264168 -0.08626598 0.029424654 0.28777403 -0.13593587 -0.2126913 0.23443654 -0.05276193 -0.097036436 0.10746068 -0.09638622 -0.027238015 0.38100573 -0.043916658 -0.13641138 0.4031921 -0.060542956 -0.18044527 0.15865828 0.060462303 -0.10320437 0.3631232 0.03529655 -0.10774946 0.22960986 -0.049911983 -0.104284965 0.1708339 -0.0031298206 -0.021087348 0.36361364 0.056922786 -0.08844805 0.34939924 0.13766353 -0.22930188 0.2196465 0.19955508 -0.19512437 0.29367617 0.13808866 -0.15869641 0.31572795 0.19693543 -0.08138344 0.15464255 -0.0060585765 -0.013484247 0.36347023 0.21052556 -0.07703909 0.29556042 0.3194768 0.014858672 0.4099058 0.010034949 -0.07794507 0.3707467 0.066684 -0.04754982 0.64158607 0.031216899 0.11946224 0.60308725 0.16951814 0.11011979 0.4836502 -0.058251843 0.015114276 0.691403 -0.12100615 0.16986613 0.6509864 -0.027395595 0.18707485 0.69743806 -0.13696739 0.21236962 0.6086007 -0.0061658714 0.08247678 0.58466727 -0.11211711 0.17422602 0.24068221 0.0062121362 0.31640503 0.5745519 -0.050999075 0.19365561 0.30288857 -0.1396667 0.21467108 0.24189273 -0.09329503 0.11329774 0.23548046 0.062491976 0.3517776 0.3485804 -0.0012726879 0.285156 0.13321239 0.015333136 0.1881831 0.12725985 0.023141343 0.20630154 0.06546109 0.05649767 0.3768798 0.1253838 0.04947147 0.37305412 -0.11923274 -0.037910026 0.4313623 -0.056586467 0.021600228 0.37963665 -0.049790528 0.14090486 0.2556179 0.27036464 -0.06861521 0.30453655 0.14067486 0.048987035 0.13210912 0.34492305 0.043806534 0.29466155 0.17515598 -0.011855416 0.26926252 -0.2134148 0.101999044 0.200138 0.17415844 0.035537735 0.22688325 0.13743365 0.08362023 0.1046084 -0.16420002 0.15792693 0.20618913 -0.405579 0.2046011 0.05830413 0.085875966 0.20772406 0.19658706 -0.16270667 0.10164269 0.22166573 0.19658452 0.021398012 0.00464018 -0.3362117 0.1533581 0.17661415 -0.31440836 0.13304529 0.001467459 -0.048885543 0.13098085 0.054074984 -0.089867674 0.19120465 0.13215405 -0.045801397 0.15391167 0.21070613 -0.19050454 0.09507234 0.078257926 -0.26701033 0.2009697 0.015278648 -0.118861146 0.1873552 0.20036782 -0.04458929 0.09724242 0.078839235 -0.22042234 0.09122103 0.15878694 -0.25603276 -0.03279736 0.04560925 -0.18610601 -0.16509207 -0.028313607 -0.1983165 -0.06747639 -0.12709229 -0.0528667 -0.020169621 0.15120435 -0.08081311 0.07793574 0.08294521 -0.062365856 -0.08355856 -0.047027737 -0.12974425 -0.11467167 -0.14705697 -0.1798466 -0.07421465 -0.23480578 -0.33655855 -0.08892807 -0.017813953 -0.22458982 -0.18281418 -0.040768728 -0.17952463 -0.20936665 -0.16006872 -0.16927423 -0.14194907 -0.28920364 -0.11445843 -0.0838152 -0.25009894 -0.11417974 -0.050768357 -0.105740964 -0.059488922 -0.053332437 -0.1658661 -0.092115186 -0.06118098 -0.0868844 0.08929172 -0.04068243 -0.06555107 -0.103624 -0.05809897 -0.21202564 0.0011417303 -0.04166621 -0.024269283 0.011980722 -0.10034304 -0.029953709 0.076457895 -0.13269715 -0.16666478 -0.16622958 -0.11964098 -0.17026542 0.060867704 0.089671165 -0.033517476 -0.06095669 -0.053618517 -0.040242594 -0.036484793 0.035911933 -0.08364681 0.07843575 0.026068572 -0.16111973 0.061385255 0.023036836 -0.08228421 0.006903903 -0.11957123 0.0344347 0.0262539 0.09354158 -0.07702118 -0.025882721 0.006815407 0.037652012 -0.079050966 -0.080046214 -0.051895306 -0.05529451 0.12003334 -0.12354623 -0.05839097 -0.14755194 -0.103968725 -0.10040351 0.015835207 -0.005672611 -0.017854892 -0.13084097 -0.048267346 0.050224036 -0.11109025 -0.06478267 0.1617371 -0.11154541 0.02873263 0.13671339 -0.12269082 -0.06408422 0.09407124 0.05995368 0.10590251 -0.040271133 0.039453875 0.0049137166 0.057986945 -0.012004983 -0.02979419 -0.057701387 0.09260562 0.11199981 -0.0720649 -0.04288463 0.06791703 0.026013894 0.068199016 0.039686944 -0.028916325 0.07673593 0.1956537 -0.021816755 0.01148536 0.04926476 -0.10478073 0.1371721 0.006971292 -0.034160633 -0.11568569 0.18368961 -0.071992695 -0.06339666 0.04239117 -0.07815678 0.033934545 0.1499877 -0.029026037 0.015694544 0.083411515 0.17719118 -0.027712416 0.1496585 -0.0119404355 0.04133666 0.04811338 -0.0637004 -0.049114738 -0.002538247 -0.12233653 0.13129151 -0.017561687 0.038820818 0.0133078 0.029434843 0.060623515 0.044379666 -0.08404248 0.10685083 -0.004687897 0.011756846 -0.0021784029 0.0037478243 -0.10716845 0.027660204 0.018007012 -0.13336965 -0.029333746 -0.023879748 0.059438385 0.031354867 -0.092239715 0.049953364 -0.019027958 -0.021161115 0.020517675 -0.06465893 -0.07725875 -0.0733179 0.029332418 -0.003363674 0.050735142 0.0029949064 -0.07151789 0.024098087 -0.08289099 -0.041573007 -0.1488644 -0.03656242 -0.0148460325 0.0357972 0.14139643 -0.032368775 -0.07282077 0.0617908 0.07461842 -0.17834671 0.027744243 -0.20065707 -0.2202845 -0.18507545 0.012123266 -0.047900293 -0.04366863 -0.024290908 -0.13727319 -0.034117594 -0.08534395 -0.22788812 -0.030500494 0.2752752 0.07873885 -0.038556356 0.18640456 -0.13056752 -0.046340413 0.021835513 -0.17684239 0.121756524 0.08496251 -0.1268049 0.009340412 0.053666044 -0.11514026 0.25672886 0.16316885 -0.13700731 0.14271072 0.19564903 0.112083636 -0.0070611644 -0.034163713 0.14777772 -0.20524205 -0.056988608 -0.04019073 0.060917884 -0.027319677 0.0807077 0.063543186 -0.02255914 0.13604237 0.038146567 0.16901843 0.2522515 0.015107009 0.2281937 0.2567705 0.23818049 0.041245285 0.16452102 -0.083503954 0.28530774 0.048918817 -0.105510175 0.21270739 0.032489587 0.21043843 0.24176908 -0.14437221 -0.025342394 0.07481343 0.01745933 -0.07877521 0.09568783 0.04272597 0.24124493 0.23252292 0.1598287 0.017532906 0.25675404 0.012708428 0.013071967 0.0909038 -0.035398092 -0.084401645 0.32408267 0.13986555 -0.17127495 0.19165233 0.0115353875 -0.057495795 0.18103798 0.024215627 0.07110718 0.117941506 0.1554711 -0.019206874 0.19639087 0.12615772 -0.41256416 0.08456295 -0.105555154 -0.17806168 0.24091014 -0.043826338 0.027968567 0.12162926 0.08849229 0.27827668 -0.04694756 -0.11800236 0.08916243 0.0969362 0.06568118 -0.023955207 0.10566267 0.16893463 0.15114343 0.17057422 -0.0300302 -0.13269296 0.12125539 -0.026332045 0.10481028 0.1631656 -0.09000901 -0.005021403 0.0473794 -0.08906538 -0.1156021 0.08670324 0.05493894 -0.16502666 0.0046696654 0.110039376 0.04388752 -0.092940226 -0.13078257 -0.04921821 -0.06929592 -0.009462344 0.11230047 0.016895859 -0.08397471 -0.049290948 0.029600328 -0.0020807632 -0.035152394 0.038981535 0.103071615 0.15157837 -0.0524625 0.06447682 -0.083370954 -0.07485799 0.05127403 0.06639804 -0.07891474 0.050916724 0.271345 -0.20365737 -0.04826899 0.14072163 -0.17766139 -0.019054495 0.02852161 -0.12795676 0.044275995 -0.09903897 0.00417095 0.17642578 -0.07751237 -0.14013517 -0.011191683 -0.20975612 -0.15189885 -0.12714134 -0.22160988 -0.07843046 0.074540675 0.034658942 0.031383127 -0.15295736 -0.13707127 -0.11603955 0.048370577 -0.08604271 -0.12199544 -0.04451334 -0.100357026 0.024002438 0.080890834 0.18212143 -0.00699969 -0.06675883 -0.017196354 -0.0016983093 0.054368254 -0.014785779 -0.05196756 -0.17001684 0.101737864 -0.110622704 -0.21930937 0.15570346 -0.13213117 -0.11076828 0.24457566 -0.050858125 -0.22040926 0.17577638 -0.12833539 0.025690012 -0.224294 0.2247279 0.23643614 0.11464998 -0.31415015 -0.23054369 -0.09655832 0.031874005 -0.09860691 0.04892354 0.08087887 -0.08647284 0.4780543 0.3191327 0.18344261 0.38917938 0.4513747 0.2538988 0.24649274 0.12984678 0.09340823 0.13509512 0.3999644 